<unk>	0.13526995583530815	0.45369852626347074	0.23321687497447582	0.2118500779609664	-0.19939386114092744	0.039009364633715626	-0.10290265925764625	0.0996235305262563	-0.18793771522809952	0.12850858467884518	-0.07165803132045828	0.4289086199390098	0.34472720722523253	-0.29585172601458587	-0.20244164157167888
the	-0.09068002121054416	-0.2370687208945832	-0.8404556455057393	-0.14756211910371803	0.26665600718567783	0.36622960147922284	0.41107366358908526	-0.9753353355979358	-0.16538914833981777	-0.7520990787492114	-0.4629506539265281	-0.04024670154762841	0.20632390808935863	0.001578945469624865	0.7935545608891884
rock	-0.016780666525925914	-1.9541016722890658	-1.6339323851292509	-1.4654080832072272	-0.2657630446258108	1.6256991634902156	-0.20205327528998734	-0.28038652563945177	0.3314583861313204	-0.2415257626743339	-0.06768120752548779	-0.05610472698709727	0.10615121313927078	-0.19821843754554813	1.5497653333688644
is	-0.5899842827255889	-0.28332313363364126	-0.32210174724761054	-1.0380597792519308	0.10026999776920731	-0.3910825429640393	-0.6778106554450831	-0.09854250275318899	-0.4993341575911858	-0.659150959256023	0.8602115101439498	-0.8372197550314937	-1.049256008826051	-0.7150490635901852	0.4435021549902063
to	0.3208272353852616	0.2785515281253117	0.9839654698988958	-0.8853024747665699	-0.41848325080335746	-0.49615914210003026	0.9322049117889486	-0.9297983320145068	-0.20888131518817243	-0.08744867344362983	1.3934935886698707	1.1427087854202584	-0.26185418791900794	-0.1005086191510352	0.9484048155898155
be	-0.1602156719593989	0.05401746834526466	1.362773329924818	-0.8480466075096752	-1.4307503223528464	0.5846615642861999	0.33187040638340304	0.322194315584989	-0.2047837169250868	0.39778986894855084	1.7264483899936667	1.6562327571187665	0.48502506973073156	-0.35760680461188016	1.5250218770709703
21st	2.1783806435270154	-2.3847056170190135	-0.6696401197955115	0.719041912287255	0.980101642008697	1.7055811878826344	1.077708624927907	-1.9908873218817753	0.04335914952241482	1.2324314458013204	-0.031489556144063124	1.8228495560155524	1.2725527116491788	1.474349482149645	2.7528105239559766
century	1.6465081571579223	-2.1534940784706302	-0.6446955061965423	0.8664969701738413	0.28425303707503463	1.7906187940887996	0.2996364694617405	-1.2186135555176754	-0.541895937608055	1.462689718481153	0.17735368528788675	0.21934489867358617	0.2549939746078194	0.761940393575383	2.9127166723521087
's	-1.189518556173827	0.3882612261092548	-0.06403103609515814	-0.6703785314069015	-0.35537888116160693	-0.7175142636442509	0.43041424754370455	-0.7775534644184945	0.8483637507671188	-0.4503074627638949	0.24294450186710748	-0.2804777863760192	-1.8639326309915787	-0.0020574949273906573	0.5677993160176404
new	1.355917493228363	0.05897067695389224	-0.9057795983301977	0.6494432256938133	0.09310435349178317	0.17686880992470383	0.6506593540588494	-0.8564088957750535	0.09101705171683389	0.8765323973933011	-0.050185175932600634	0.46092652833016406	-0.13175476613356685	-0.6375906341594881	1.8274592486804746
``	0.32213944211738377	0.3135059585142075	-2.2678599755626854	1.443134822075299	-0.5549195063121147	-0.10004698156664082	-0.0012313197034622136	1.865020198160828	0.5884441926980759	-1.3258334591944858	1.1640720602685137	-0.41339360089841015	-0.8944216834169654	-0.5996642287769056	1.3445267710955637
''	-0.9174621287859657	0.272456457841209	-1.6077409792785424	1.308670987955321	-0.240820730210594	0.607489675411694	-0.4776268186827952	1.6896254840338023	0.4601611475259906	-1.5446372199225804	0.821160394631055	0.34948643161241905	-1.2741199454126466	-0.02893713905197326	1.7468116956933597
and	0.13376884711903902	-0.45231675655352105	-0.5084915832906399	-0.09214481201227787	0.18105053808319244	-0.5191654023824719	0.20429379276948229	-0.5807469841682237	-1.0927031808862604	-0.2449225317104198	0.3761560879098258	-0.9263446613418631	0.674239334440996	-0.32585631816036204	-0.4865267314972071
that	-0.13553998268226858	-0.34417047996562755	-0.5666783301896424	0.2019841229669035	-1.2249081091596459	-0.11275182589700289	-0.02496445853700216	0.3781987471821337	-0.28952864738701223	-0.5803492978560356	0.8513421880499173	0.23027485446939394	-0.2980546833329376	-0.44770994488979066	1.2592210052146
he	-0.34908759807438067	0.3601573802159157	0.0008138463040475719	0.23787574561224267	-1.3428951640306868	-0.6200479819225564	0.2843031400346088	0.14068979254151429	0.6342026791096282	-0.07387789574888387	1.526785122053076	-0.4800768645714769	-1.058020846406532	-0.13312338310100288	0.4374316344065205
going	-0.2487528912367934	0.6211891048505037	-0.29324238724258733	-0.15818941343898468	-1.265261960061466	-0.40409894508180877	1.5549372858070996	0.18845055578727912	0.9253174748259991	0.12043946368658964	0.5466680141638363	1.0458014507213265	-0.6636387152073616	0.7748820855622645	0.2707349555267071
make	-0.24386210127770613	0.1479634643760188	0.6606845281159938	-0.8586804107441937	0.3759900973241439	1.034496961542147	0.6431757645279159	-0.11426829094623375	-0.5347676089813489	0.6030780288938589	1.7020717032631758	0.9583490248763813	0.3657731815179631	0.6098175461780623	0.9813440978854016
a	1.2828578196313527	-0.20660060611085862	-0.3395261941650092	-0.5021416998397548	-0.323670082559738	-1.031612080038292	-0.8527102657205038	-0.9605601691372713	0.19887716419032592	-0.8404619649297151	0.00570008476383721	0.5919830493730271	-0.4605754884364929	0.09070023441560987	0.3951364587811614
even	-1.7867602605927613	0.42832422511532114	-0.49667662325838724	-0.3518707835578858	-0.4264854110273037	-0.3769105974949176	0.5458658315047731	0.41567477465988056	-0.7306422255001038	0.23892069246302267	1.0790264652253208	0.2909056968149037	-0.025586551964725368	-0.18012524852215886	-0.9268538931772536
than	-0.046689634504915534	1.1658356794609195	-1.043243256605284	0.06834977819205157	0.11442892329360721	-0.2995962426090087	-1.2978600524027208	0.7401442186173013	-1.0242986147526834	0.5333225620477837	0.7356445246567034	1.062539959238103	-0.3252381529327376	0.5646515926557726	-0.4123052703862026
arnold	0.7042122587820064	0.7002224473619412	-1.879948867878002	-1.1592877406586424	-0.7876281352898866	0.8824446597963579	-0.9176986626457084	1.8981160784370843	-2.399440311896347	-0.7223382891305321	1.6198723048444474	-2.029084381245338	-1.4687178183482126	-1.5634763200880213	1.7404935346782155
schwarzenegger	0.12445874849015859	-0.008597042072769234	-0.5984432618878961	-0.9525616767948315	0.1405192001736063	0.27186409413518947	-1.6459140880480785	2.920358766096737	-1.6454070535596657	-1.1010646149208378	0.8702162810203673	-2.217381696889815	-2.0223780128044457	1.3195048109527363	1.631205019886043
,	-0.09181453582338084	-0.5428332166748664	-0.5291103398952824	-0.27794982754976266	0.3232232312564422	-0.11892751676653568	0.36006495182897835	-0.5145305831654103	-0.11601016820120341	0.1567096566201944	0.11240088037583429	-0.34554197049038116	-0.5626089100001236	-0.35666607629711655	-1.056284294442851
van	-1.3652891038138801	0.4273899701270724	-0.6024319088213387	-0.98879813590428	-0.9293744664943193	-2.6658110179622234	-0.027533569976993022	0.2954863791238773	0.2481991369182669	-2.2211786663089823	1.575175716594605	-1.756311016197301	-3.290399319906377	-1.2608522254816164	1.1907281472954858
or	0.17996821352318382	0.12657206692349227	-0.867861394674424	-0.6596208780046875	1.417181823871448	0.886731466143537	0.11530394180559655	0.11400464687255629	-0.859994395018992	-0.23333318863247932	0.9467413040086861	0.2981013640967436	-0.029681222473669333	-0.13870559925699885	-0.16955941503021815
steven	-3.4604707167211712	0.5880453955229972	-0.7400755037323553	-2.283781806176257	-1.0058501748661222	-0.4685674960385506	0.75854384895874	-0.4121894970708342	1.5860012171884272	-0.5650303728886784	0.16749478779844718	-0.23989900402822897	-2.333515581840346	-2.8387589034039746	-0.07450124069661734
.	-0.13668710861521333	-0.8425573326486235	-1.2674785757255287	0.04636954017677314	-0.0014255490725499365	0.12174491866209669	-0.005235034126848059	0.22043181396371225	-0.6719955161446534	-0.7567712955199528	0.260133782597075	-0.7077904577455516	-0.8370744787643976	0.2916743224348933	1.0890873676878075
gorgeously	-0.3844183974555542	-1.9751198895575468	-1.4055377830244784	-0.2894337622613419	0.021073057279799745	-0.9929255504556668	-1.1392047953151154	-1.9480869137979955	-1.2597754146636984	1.2619272296484505	0.5156084939017396	0.4431724841653954	-0.4456316835353065	0.5705727764137984	-0.6511948529323626
elaborate	-0.36364834279870006	1.254111751023911	-1.477467263653063	-0.22680102300107158	0.06478266539026481	0.7168355377283862	-0.20066691785130794	-1.4593321048508625	-1.967670751207675	1.6962579849073776	1.7265153471178067	-0.23581792841920488	-1.1870788358979407	0.5375687352286068	-1.3891792209764577
of	0.18704398787898768	0.23073610026921504	-0.8082425816372973	-0.08854125036330769	1.1330615280195424	0.9850169800191613	-0.14687728515254983	-1.4451023393424902	-0.35899878118430395	0.40424531893639193	-0.6073117357570941	-0.12395989485904488	-0.5761329482644336	-0.1849469265868051	0.43913575767848156
rings	0.7274745927542612	-0.1375096714130913	-3.0529381563218774	1.680782807459971	1.6840339716377617	0.3872317873962098	-0.8330766953600244	0.2063844069411075	0.38718421304441364	-0.21002677160160071	1.5926676972473794	0.7642688808130041	0.5131054832623674	0.29891390409083035	0.9956196270866877
so	-0.5186744264744833	-0.18535966917675037	0.5082145960381876	-0.0859387298584773	-0.8095596598503287	0.4705125328169455	-0.4255502101602646	0.47206567212189193	-1.0290066525910544	0.5133099751625164	0.526127545390683	0.8194886080783373	0.09876458414895706	0.5652525610147173	-0.5443644408918913
huge	1.2204769511137648	-0.7577257476771406	-1.5834628299550308	-0.8550501950423335	0.47466452839630946	-0.08841599763587975	-1.3691822517398287	-0.5558641419826169	0.17970519800764995	0.08878114160044875	0.5997267578245622	1.0413656004521346	1.1405600732711056	-0.06391577329805126	1.9930015035372157
words	-1.9994128015160983	-0.11850095316223469	-0.9702919064510869	0.21908953938663078	-0.18889461676977007	1.3984044785767171	0.30974473907232875	0.5344010610118387	-1.1394263800906113	-0.3527635696776207	-0.6388056223093739	0.5354581619227762	-1.845251018155889	-1.9994266372623763	-0.32084195650696384
can	-0.5109968850023127	0.49274312229552025	1.081094326263755	0.3121720198639309	-1.1341259408836506	0.643088132025516	0.7738064453967288	0.30537078134474904	-0.6644678249837486	0.10275293418697268	1.5625019044253197	0.3194330160187227	-0.4479895129739896	-0.44757411857181595	-0.020086675572754953
not	-0.5525415211242866	-0.2951228440842276	0.5022888142380616	-0.20772518029246015	-0.0012011802083020662	-0.5784093452904603	0.1946953242591406	-0.024739203906671392	0.011285391842307813	-0.59022922289934	1.3551207394477534	0.2655598746558584	0.19259795851915534	-0.02278289315767318	0.35931510332720185
describe	-0.40832249036449386	-0.5641252882447358	1.0116644285542833	-1.6497871379602898	-1.335151273836852	-0.5238506666838669	1.4449099795041278	-0.6629904889501527	0.3304959335508408	0.5212583262299092	1.9420520079533155	0.4927664727243694	-0.5922233929375873	0.4379162011651096	0.4378999437320731
peter	-2.1492066024801084	-0.715645293114773	0.17638975871473828	-0.7708650527856311	-1.640868494481485	-0.9787099548374938	1.937546317679369	-1.670903094687477	-1.0088777331806245	0.38147658961020536	0.10641655774077718	0.3179686962701099	-0.8169278619431177	-2.8046520503072885	-0.018914767694788726
jackson	-1.2649865277444343	-0.5992754273556218	-0.039306793806108575	-1.404899481785194	-1.3934398068665514	0.06672635392624662	0.8549532487312823	-1.5133353928536746	-0.6554635530485318	0.2053027920454482	1.0106719771889323	-0.10384354365685051	-1.4053832177533625	-2.191426425979135	0.3989079509454419
vision	0.8178778000394233	0.3001063121173508	-1.3258358214330683	-0.4634189931195338	0.2201681414866867	0.7157869265860216	-0.33310744018289445	-1.9257710053644834	0.19663634476964764	-0.1752004009798003	0.16792955112016816	0.5756404167123303	-1.3282253478966741	-0.8315542342674286	0.62092453314993
adams	-0.8927303714901524	-0.9129484861544855	-0.9455688921279828	-0.9497885637296306	0.2429453132551559	-0.01709662236807019	0.18420658617617985	-1.797362319174038	-0.5886082053169014	-0.1411800275278312	0.46420252549765273	-1.3465414333489392	-0.7303763459880187	-1.5403392478868003	-0.27570604658496906
songs	-0.3286325766658413	-1.989264736386315	-0.5586163062007168	-1.3716694218500194	1.6795124573037508	-0.45818894053557235	-0.8192911760280881	-1.6993215115415667	-0.7731895216209481	-1.7384361754900737	0.4931961240807492	1.8665875943554169	-0.6937367525607107	-0.385853319588114	-0.23871323641401776
--	-0.7892837055507299	-0.10139202464941757	-0.39774162641554955	-0.48573885666032873	0.195332460956413	-0.23829323736504565	0.2334336286326717	0.2953415370306618	-0.5278143830637619	0.34519608867315693	-0.35291708684165635	0.09607874125901462	-0.3685994944597127	0.021160964559159945	-1.251611539204152
few	-0.2019893190698352	-0.35295466454779295	-0.27858923880424047	1.2459875184994578	-0.10014765241775675	0.595159445817756	-0.5988003115565865	-0.6343568510381158	-0.581186281218018	-1.7017205544673315	1.7911449394297358	1.2404194172034568	1.0207059976563377	-0.8773766535442267	-0.7649757975824358
potential	0.06846815350654445	0.10845055611322674	-1.783107156486086	-0.6647290358061134	0.01460136835692366	1.006409974298413	-0.8619715033765681	-0.16350272431968238	-0.061135698174661135	-0.8228634266214816	-0.0885208312990402	-0.053262873312824144	-0.318708462098938	0.8741336511001145	1.0454543682370432
hits	-0.35183468682881447	0.04367134211757118	-1.9138258687621774	-1.2984341884055075	0.8002375347676618	-0.1337106942576055	-0.26516621041050203	0.16379841765384118	0.014268016822450824	-0.7093482329227985	0.5167137919132929	0.961592157257966	0.008751369983622581	-0.8491536721937076	0.375625317778501
more	0.0014058267137642272	0.4547116820339153	-0.7365515805199737	0.021576556614021414	0.1471274756031789	-0.6574868318291691	-1.2168315082234396	0.11438807562073372	-1.4815312910818847	0.660812771365722	1.2622606007282164	1.0395413436387253	-0.0899140392907053	0.9515441640265266	-0.08732779921595824
simply	-1.187195213542827	-0.013598448310029432	0.17386850351330752	0.15915121762220313	-0.5530472620913803	-0.3200659200820426	-0.509847098663417	-0.4630293619739968	0.4714509411698935	-1.1068198402336324	2.1734368005994	0.37066841807760453	-0.5248766279721688	0.25994246089235507	-0.016793630353521105
story	-0.43720956833973346	-0.6780671762407215	-0.5627188960636373	-0.14162773686974545	0.6399511310866233	0.07620873645512799	-0.7992082376598449	-0.40167279135440137	-0.7682697295976522	-0.4085532564671953	0.910917949690362	-0.7846426212037743	0.2158145002982799	-0.1519281271262088	0.13849826992843572
but	-0.0786353556266351	0.31782435398045916	-0.3891325736777439	-0.24850055475162625	-0.08709242107127713	-0.42014899829628893	-0.2909039797170283	-0.3586335296191494	-0.0708217134067331	-0.632408415439176	0.8583536775843045	-1.2657922461221403	-0.89758211655382	-0.016728103680577366	-1.2292536501416433
whole	0.6772426865813881	0.4691924866487615	0.17087254858700163	0.4387539813549754	0.30670798766164187	1.1242836740408322	-1.3726926947021136	-1.2766229900470758	1.0301509400903819	-1.1819294968416567	1.4128386193100624	1.1029679696643906	-1.798239099680711	1.7250599162599896	0.9623152955332819
certainly	-0.5871762594555303	0.05345208299506177	0.09207480723625538	-0.5394258358661188	-1.0531590850254375	0.15639990198596831	0.2646112642996141	0.09764949640797305	0.6868251530773621	-0.48568710926690606	1.3353886990843458	-0.2811177518217891	-0.7043471766373862	0.19241312985196046	-0.021702906268085076
captures	0.05190498448587366	-1.046311893730759	-1.28233761960097	1.5068933773611302	0.11665360251204027	1.045687851013045	-0.0083909324181011	-2.240133936004918	-0.24359357706785872	-0.2693205114611146	0.4676556169852797	-0.08709078648111415	-1.2197960382900535	-0.5001714039855916	0.8213055307521997
intended	-1.1170931726920421	0.5526421001519554	-0.19929374633133823	0.4006751135218104	-0.44168835358338704	0.9960838470409181	0.32170557411082357	-0.9329201742703972	-0.7491314460152406	0.09393208696972136	1.06776348444683	1.05283600965628	-0.7732203035744163	-0.4931762466286677	0.9276246573325149
spirit	-0.4181557656539795	-0.24762519865942917	-1.3845823446217707	0.9031300681816467	1.8008416341537052	0.6392809200150918	0.5439360826513405	-0.7495001323016321	0.15932721590603294	-0.918946768453056	0.9246317590464879	-0.16476310776977235	-0.3147369425991093	-0.0024299130203949137	0.2954245729291592
piece	0.657047401366873	-0.5352259770045167	0.4796762505800879	-0.2871082790602006	1.5091793318010303	0.505871548290644	-1.0193308894614188	-2.342783323946981	-1.8419333337743282	-0.15362027742503934	0.8756418290382658	-0.6490163470665287	-1.0964359725689068	0.19992867293441857	0.13828226418748452
you	-1.0509248565615477	-0.7281413654845142	0.741745284429035	0.5141689350557302	-1.6845277219837325	0.7180460334169798	1.7905826681982195	0.8192734728240161	-0.8717375859612482	1.0924282792227993	1.9733392291398704	-0.28333871162973345	-0.8926569027824487	0.9190529739152017	0.23870944631008179
'd	-0.3324461621811883	0.9020449521044727	-0.06134114987641737	0.35981933609725414	-2.61278210519153	0.41053031971093834	1.3136802974045907	1.48898733428677	-1.8983029366650466	2.1350131288998204	1.1366279099012813	0.6635708242616623	0.6930933712611915	0.5019723204742232	0.17896920655059118
think	-0.7868900545638446	0.18647148487368165	1.1338777100972914	0.5451482119766451	-2.649591682983762	0.894648790787764	1.3369894339936514	0.6244578315416236	-0.8826456586876271	0.2747119747703757	2.0433090983699085	0.7345214453466842	0.20162957577344726	-0.07202640167220628	1.650766557323389
by	-1.2151954579985458	-0.9183758029886936	-1.3200714149739339	-0.7319339368024307	0.3070754669109913	-0.04465145535222484	-0.525916588496587	-1.2777120335222352	-0.12930394457887318	0.6160324050894979	-0.2697993036116002	0.603492089261275	-0.7445960070101834	-0.8588868439060544	-0.11841590730743168
now	-1.3897149043411938	-1.1160279918687661	-0.4538551176174303	-0.24574593222354046	-0.365917640874846	-0.9741069635462057	-0.6629022461275638	0.050257162878294515	-1.190347513554669	-0.5659134974569828	0.3922457498992522	-0.2784285344404707	-0.36911836160263245	-0.4315144174926008	-0.5446818680289514
america	0.2691347600629093	-0.5659813076631297	-1.158654109032792	-0.710546251396358	0.6002319280202105	1.1787368509733416	0.9681105519739435	-1.840265698070041	0.012224513836647688	-0.5251221221454703	0.1104426753102612	0.09418428325838638	-0.3975048042272591	-0.06179765781524216	0.36389994283596117
would	-0.44996712830066665	-1.1226658565337968	0.6105778986897047	0.12296702905015738	-1.1085075824897996	0.29848711227672453	-0.13119987311733966	-0.498160118939064	-0.057372378982501415	0.7190283968638501	1.2931325733804155	1.4086869446229704	-0.10289861035004544	-0.5040461504893986	1.3504601188315601
have	-0.7620187848633466	-0.8775339038189334	0.42492833908816946	0.3984749680856428	-2.206336807016633	0.5777986787682465	-0.49573118758753637	0.09796653324854099	1.118332446603791	0.30022645429319117	0.8254553563968099	1.9586591851101132	0.5642036023059979	-0.5912932160761277	0.75950158089683
had	-1.1238899675507725	-0.22763526674724188	-0.5844786220665181	1.0973126348481637	-2.622459326235148	1.4093404539560552	-0.7716665753350611	-0.14401955323831472	0.22255720568609216	1.8524978826665874	1.0874600907612337	1.593578596892141	-0.45142856362128725	0.988061485221601	0.4917790112469018
enough	-0.006477050699602638	0.5703749685293913	-0.1331175709903777	-0.9052564742523718	0.37750660708550615	0.38190311288878964	1.1740873871034108	-0.5286175352863783	-0.5763014276191714	-1.121881203858842	1.9397910603947812	1.6261213871961853	1.4205805873930972	-1.2509592575713766	-0.5283556635915669
british	-0.261364183411123	-1.1860445535673454	-0.7677826322305819	-1.0555698544206102	0.019638440356990555	1.689389772797776	-0.15979410168921873	-0.49877570167264645	-0.1929808106018303	0.20083693620527213	1.1490298954155858	-0.606982437937561	-0.28352111486022913	-1.2423559774694244	0.08897972898810413
with	-0.0705022428601392	-0.5339537607018344	-0.80816698271158	0.03183896694941296	0.1680273348377409	0.14060242420648672	0.5352402961055678	-0.4169182033911969	0.053091641601092254	-0.0514840349203457	0.22601730377714585	0.8208669944815141	0.7055050974172183	0.6193482358636345	-0.1311305695078815
hearts	-0.26666020478586316	0.14745601257679058	-1.4134132130063044	1.7542857575707103	1.0137486114158223	2.492436770969319	3.4987957636838516	-0.4271715750718237	-0.2879856456080192	-0.3282900760756807	0.443985272336344	0.6010353512162545	-0.44257310201112604	-0.5897988292068244	0.9149709115882838
yet	-0.46595028916294906	-0.11591892768891607	-0.39113258383221694	-0.6679460485625242	-0.08817336948647048	-0.19770509387790663	-0.23263353108496	-1.0558365596257637	-0.9675168813991077	0.7623992196194302	1.2753241803746225	-0.5903391347342937	-0.36523901252874785	-0.4304933824908352	-0.6410668140328523
act	-0.1578861106485242	-0.19747311504024878	0.1524604670406604	-0.5487533462518828	-0.22275513472510677	0.27891312236644233	0.7845651026796947	-0.694227683378142	-0.7159873854369121	-1.163387382394484	1.1440077987091886	-0.3504206873498413	0.21752324748436475	-0.14106351637712258	-0.15775530554982709
still	-0.4174555978370034	0.5673256754929412	-0.2347564829004325	-0.931715257359641	-1.8211583068543056	-0.90395227208123	-0.28515708141688806	-0.6560220081142046	-0.45404519685093314	-0.32774497156853966	0.8975549615426569	1.4548971570751186	-1.2161512996808905	0.31146125260519564	0.838798924577159
charming	0.46246005942798024	-1.3280005337059186	-0.2814822684164434	-0.12834521836998378	-0.8832341056375428	-0.6225793025332169	-0.7993482337369276	-0.22549470335506627	-0.9979571348274803	-1.0919001098000691	2.291105836257395	-1.130852102906531	0.2921290571602038	-1.0331208825297495	-1.2225392749144441
here	-0.925694638814501	0.2232432451026436	-0.49585680599654847	-0.43172658640052974	0.053923329133728014	-0.22368350780795382	0.1151012413300412	-0.18626694417873668	0.32433980982749433	0.046964846980766334	1.8309746751822977	0.6618287260962677	0.007461070435848538	-0.5429202401286617	-0.26753008766274244
whether	-1.3768537666624983	0.6474064643424042	-0.02782639523167152	-0.3655347517448934	-1.7876822415825933	0.4468859357033489	2.5891818377257723	0.9863753967017526	-1.0275398463014092	-0.10565631142588268	1.0234420343817958	1.4778313351155465	-0.8721739279275189	-0.18408151310420173	0.39857198437132063
're	-0.5670599046025978	-0.8323153600165811	0.0687105576121314	0.22624105336351652	-1.672873834625753	0.014029585017194562	2.78902986090971	0.8881626462246293	-0.5595029324325164	0.6133558447930656	0.8859485840959088	0.5304347693128242	-1.3074942399585614	1.0789759553903915	0.0847680523649515
any	0.7680800088623126	0.22219306638345188	-0.5673981156550383	0.43660600758544665	0.4532388841693802	0.3911208479043551	-0.15320846221408324	-1.2927439853384133	0.28166413062592494	0.5430593171941414	0.6650556514858835	0.8521692481129277	0.30298181608013736	0.4210412801619721	1.0392239656091153
on	-0.5418983958974254	0.07482373644246154	-1.8607913995517014	0.5329707639471398	-0.49475921402846174	-0.21358162077055776	-0.4014561627406361	-0.2268570674773101	-0.6715253902785989	0.36154574433679154	0.16008019848761446	1.7494496212969746	-0.05849861193990946	0.3739568143605586	0.2205908866245787
other	-0.7480009178813507	0.5592446923382633	-0.5272516644316645	-0.14202501365183196	0.34955418818851114	1.823480905357242	0.2002634539956762	1.3140713897705512	-1.0389876598179206	-0.29213048249804546	0.003989798803125888	2.8930935180976447	-0.5979691889177866	0.12327564696474441	0.40843513080043903
an	0.14313032788923288	-0.1305763028579563	-0.05715041867228787	-0.7150326114672438	0.20805148410726085	0.4258938705313728	0.47636565666473246	-0.9892369702671786	-1.1360874901195455	0.16710673505435164	0.6856844925336885	0.0758822340537082	0.31120047667743655	0.8052013316131241	-0.09916310383156762
undeniably	0.2611577543634548	0.32625998009533735	0.8711583443961104	-1.0683430906656344	0.2855728920297227	0.4552236366083456	-0.43363423500044684	-2.378541819020377	-1.381861822141416	0.6418327013084436	2.1850599889817772	-0.7422551167602556	-1.8414274768496806	0.8042018674855782	-0.7840036313540033
fascinating	0.5593303255669279	0.24927380306589278	0.30749169362526696	-1.0260773763795838	-0.2645204546736362	0.7677211859581948	-0.3499837101437223	-0.7408602665033579	-2.032648317009408	-0.8348078336527005	2.208168275242753	0.35045761022802063	-0.3566495105574867	0.6416422909934634	-0.42074316939896717
playful	1.2370305461657836	0.12256478625961537	-0.6667528618798964	0.18823065096319436	1.1379724216667357	0.7801056157144344	-0.4887946028420752	-0.3808092943589789	-0.46790486384439206	-1.0454426237912526	1.8219582244626056	0.016166183941622215	-0.3049993180115227	-0.4378280573116592	0.7967241043683888
fellow	-0.5044029049156304	-0.03657930947712218	-1.265606373122134	-1.043816379597418	0.7223854956314737	0.9492601868681552	0.12913160608096946	0.0406434356824692	-0.8122134959302874	-0.5480256309401098	0.2716200132976333	0.9890710962117718	-0.013514048026449205	-1.3540651489067197	-1.2897973716961653
just	-0.4977706712714392	-0.33998442881071445	0.3451130967526056	-0.004843559555823881	-0.8747534250234333	-0.33130109983592554	-0.32475843785243214	-0.2872773082153136	0.01583267413131495	-0.6523599703879289	1.5153222280534584	-0.1273726282010781	-0.4499608457257618	0.7424988636472216	-0.4857182660958118
involved	-0.769465766877943	0.09340811061447152	-0.2826095747671462	0.06586996535319456	-0.6779032015395692	1.0199216968212697	0.8736346817229841	-0.9428397214155798	0.10965481631079543	0.3900687957599517	0.7747546881415768	1.8478868695089417	-0.9663601357119177	-0.01846392258036715	0.589871830143825
in	-0.6864947535734142	-0.6767642200584822	-0.8932000783214523	-0.07121079726219076	-0.23230961119011084	-0.14677422839301085	0.25890663424531324	-0.2895799855217753	0.7889158103546545	-0.10422704974352523	-0.6116037784894128	0.024123241853706512	-0.32260469690814586	0.16656653542479732	0.21926814735623096
creating	1.338970777409429	-0.21285768275504935	-0.5089458013512094	-0.5603427441764459	0.9235017274191242	0.8006282972810478	-0.48567566591914696	-1.6552348229229106	-1.3654630617845958	0.4470755353322071	-0.14847940514735947	-0.041470662780129966	-0.621482354074718	1.4077165493433343	-0.408057580042726
imagery	0.09074052624397355	-0.06395126496004583	-1.2521802771526298	1.1565254288527043	1.1882675263764906	1.3489251300950256	1.6876527905353933	-1.4839853128222062	-1.3618532249431783	0.11023129747655983	-0.1518690592232872	-0.6267657365601703	-0.04753475500473947	-0.8507745545767927	-0.721773020105436
this	0.5188836853793888	-0.346483428944063	-0.2780856698781152	0.46400808412593664	-0.2806018067954523	0.700260659439697	-0.17346027571834843	0.13710182985717262	0.2219058014012787	-0.2823772219624166	0.2932480401285098	-1.3641247800147898	-0.846733315445751	-0.6181004365477005	0.6943366388931289
madness	0.7730117198626838	0.5788381715946208	-1.5816389411971228	0.003788991743390452	-0.08404153734320804	0.2859502565991613	0.044829067460352146	-1.0174645776132591	-0.5925474030140216	-0.9304634455942449	0.49459006302594744	-1.4402933904892175	-0.9556833630219146	-0.4710903955377814	0.6296454058988543
light	0.00490785605893207	0.4226168114059136	-1.6157639081821442	-0.7189723129027198	-0.037782871055196565	-0.48137282990248237	-1.1815517620695617	-1.1086468323224405	-0.874113009829244	-0.5856393884179105	0.17111185306138088	-0.09803756652334766	0.4931387109403451	-0.45847151182446383	0.7472119019532086
astonishing	0.14047486288052846	1.443775564445931	-1.7887468037772722	-0.8008170575815969	0.5182499987177641	1.1435064034195135	-0.030305918343692922	-0.20198186788890954	0.32088599767948756	0.08093777223303963	-0.21241338476422422	-1.3202900531253983	0.006148445424314475	-2.0879300592870877	0.5041127252085184
part	0.7783126443127659	0.4097846585980348	-0.4946123471844297	-0.07392859869118129	0.88913968374486	1.3156215349547102	0.42240239700209514	-1.7334592501360164	-1.3671785200621103	-1.008215370531533	-0.21788177709024992	0.0317346943093218	-1.5512894231322807	1.2214715529362565	0.597604232015465
charm	0.5024894971267296	0.3587063684001191	-1.3295253347914835	0.09298652314000255	0.14661807918132191	0.9118013542760541	0.2985751525266072	-1.5259201045965367	0.2548064017425219	-0.19319495686039923	0.5992463718860304	0.25557305301535577	0.1569963979307571	-0.17453660968052556	-0.5252266482620197
rouge	-0.9949840480698395	0.11058693984896906	-0.29346786734660757	0.579341006975784	-0.7741580928876104	-0.10070768919770706	-2.4036918984936477	-1.1464195830189468	-0.8235384789406057	-0.1677272299993534	2.6267280975490563	-0.041921278538936374	-1.0291790576685473	-0.05433328378468283	-0.019503973235081018
it	-1.7926627474281411	-0.6456416696523786	1.1653788219845516	-0.384604788997884	-0.5051903371160809	-0.9971277587201768	0.3087142423864733	-0.3006281275204026	0.8026039531030327	-0.34463577173146587	0.9260886038093337	0.7655462207587044	-0.5093332731077451	0.2820251104842792	0.7457352473711618
avoids	-0.49814818159228524	-0.45052878090312054	0.9734020367227799	-0.6557314282008873	1.648757373563486	-0.6469861804391484	1.453609988330997	-2.723533940741878	0.3922925652168988	0.08471295295624039	-0.2858572493117306	-0.20151803143051616	-1.6268532722385147	0.224750507198916	-0.5499232118815919
obvious	0.09969729691518614	-0.027883766654659414	-0.5758933910391929	-0.0692483758757125	0.46918111813210617	0.10381594472258493	0.3296764290274313	-0.5919587125262545	-1.6015449449866885	-0.13717488558164292	0.9169877744503954	-0.41840714086477027	-0.30658844329608104	-0.13727364881228243	-1.8933735980341744
humour	-0.9507493774308516	-0.8170778285698654	-2.068641285191698	0.6076060451251466	0.8236240472232013	-0.5937209948637076	0.6538529633429478	-0.9806794580211557	0.04299808517538295	-0.9514701066338187	0.0345804323146508	-0.6179310556228209	-0.2533543723046754	-0.5414789132927568	-0.40554074735667023
screenplay	-0.19874329512189115	-1.3052370785890741	-0.2593636401267775	-0.7701185151434347	-0.05198083378809604	0.07823409045040194	0.3727770794708029	-0.663652787715489	-0.7734254191632204	-0.4738334768785844	0.6394311242707843	-0.5452779286348315	0.26443906316347565	0.23672374499480503	0.006517263249492089
constructed	-0.4687448443248099	-1.20278772142797	-1.7597040990302546	-0.8056742238542205	-0.2626320085419656	-0.9544042736786793	-1.8210993210506703	-1.0516019367394394	-1.556380969344062	0.4758312283989955	1.3323422204242175	0.8411974507479056	-0.37664606402107814	-0.20474045230332427	-0.5693196090608574
extreme	-0.15198578257705042	0.08449330232131497	-1.1866894472639977	1.6954121780794364	1.6028226282309292	1.6977204137508186	-0.447107667832841	0.6696942404236245	-1.7248358633365322	-0.20498240953821817	0.31145079122571473	-0.49746491027399836	-0.40729772318246715	-0.06413084025916815	0.7360583386572815
expectations	-0.901176992026974	-0.7808522353618228	-1.7844203537918562	-0.6239290988355719	0.1689479139732541	0.45654554521889207	1.4734084735687403	0.5819217736181777	-0.49132839334695244	-0.2881251015740855	1.0150483844577476	1.2981979760335771	0.943844524569919	-0.650573355364396	0.6694548935185811
good	0.4934329016032725	-0.037358472698564946	-0.4940407727690562	-0.20130870988685579	0.3474977811461704	-0.6673794125413108	-0.4142549749833223	-1.1254013008675363	0.4423446146169706	-0.6468660817512845	1.110764933546132	0.43188788561060554	-0.6047545763656816	-0.21347124834447473	0.2334403567379053
fun	-0.474622246981495	-0.4487510042477315	0.6105125809188658	-0.12313362302450793	0.29683673756111506	0.054700204171326705	-0.5489166203811733	-0.32440849444415665	-0.6937983345991182	-0.38333320756064515	1.3651466412714806	0.7771799909595827	-0.25117995716676733	0.35125675621774616	-0.060994949816510366
action	-0.17319951570368453	-0.14963584589964452	-0.4605246158703744	0.7447326136999632	0.017069265393094765	1.618327325094892	-0.3797193032829117	-0.7866622272488375	-1.1656810078934714	-0.9540002349402013	0.5494167989039833	-1.204761997550132	-0.5341782912062196	-0.09350474392764468	-0.25329221558165993
acting	-0.8324729998408054	-0.3786786739779816	-0.7158775048032349	-0.04857272730776049	0.7743971052569159	-0.3468223076845499	-0.9105771189733882	-0.40628474128123887	-0.7325712462186474	-0.4896618626691971	0.4646606538280815	0.08365269581244916	0.16425645189064375	-0.2892729454764602	-0.7689106849073859
dialogue	0.20687898163801444	-1.5129406556306395	-1.303874297788887	0.7651721481227677	0.7933022941006029	-0.3400014498187965	-0.3479044141498343	-0.7311581288749089	-0.823019561336782	-0.21179927511719038	1.17782053326515	-1.3191783594714956	0.5032898404979405	-0.09112951054504058	-1.7456148542680814
pace	0.6250146945031709	-1.0028002164291312	-1.3679325292958922	-1.9552934254645065	0.831317485710598	-0.8297174203476001	-0.12500587437286054	-0.9929154912139708	-0.1280587379452237	-1.1120970676862485	0.7793246518463486	-0.831672330917589	0.04549114001110631	-0.8347602559710886	0.28417259190990485
cinematography	-0.3955545855183368	-1.0755215812908778	-0.19683108108904113	-1.3260060514523826	-1.3821306948094243	-0.21871667441007947	-0.020950475252214204	-1.0928294416307702	-1.4428391426817695	0.39553040600388945	0.42639468935298885	-0.2422309957627487	-0.6284865604479474	-0.8658006925957796	-0.4022569367281066
should	-0.4815540426624455	0.2964790271013751	-0.7186043309496174	-0.08954918429974039	-1.4101850743503501	-0.00740502409690269	0.6860891147719799	0.10793782125438955	1.0440200185991424	0.7084343213882622	1.1079652617493558	0.38006453932211753	0.8032982531889427	-0.08282404184127498	0.9036645705194009
pay	-0.1512265467919267	1.1956451196536941	-1.2339161884713894	0.3781898716488013	-1.1929205129351526	0.8957425468053835	1.7014177092431624	0.8129371813595998	0.15403226567615974	1.812030310772272	1.3185740545621192	2.953770559559542	0.7937762734869754	1.6450893323592746	0.8865977707940595
bucks	-0.0011787753203732487	0.64822920097598	-2.328964494942524	0.36139059712075805	-0.18479757116507148	0.7052872198676121	2.3374565409777697	1.9414521505750044	-0.9932888022255527	1.0706828249927554	2.142195571124255	0.3246725390506602	0.7272817598259866	2.4384194337919265	1.177048384482868
for	0.029635792475220774	0.7833474157355516	-0.7348329627318929	-0.30744798378245647	-0.008172698044170007	1.354365152685284	0.7075901073576827	-0.6645493872010776	0.02898752946177005	0.5192103660589077	0.8580166109879962	0.8503817283303239	1.0538028446122423	-0.0481896597847028	0.377962876371894
:	-0.23597608344299592	-0.04336750355464558	-0.6556669322945544	-0.1758120239691825	-0.930065484848059	0.6589151063353593	0.22262567535253944	0.1749702185015748	-0.617695971226826	-1.0330498347823363	0.7000523512976007	-0.5154674312368203	-1.041874495117075	0.4459320791966935	1.3377228440187374
because	-1.6965279957370707	-0.603704258445765	0.04223797116880135	0.2835439930391431	-0.3265342676321793	-0.10692396882829625	0.06957270866652854	-0.6088396323412126	0.0979186754172458	-0.21664807994072993	0.8321324905462548	-0.20819556350692228	-1.1910220086483556	0.4342143604333002	0.3802167878148652
hear	-1.242204595592998	-0.5165177203836544	-0.04632976699544633	-1.3161001786998021	-1.2331047702314115	2.4034239254709093	2.597258033082154	1.291821144116256	-0.7261396703494611	0.1911308937977626	-0.03924175468228852	0.2966234352625651	-0.9750991469020545	-0.2622041210664876	2.0429439563155407
about	0.5119474993232144	-0.12687999826339824	0.2615621924029603	0.2683215421773069	0.053238129406874654	0.9496384396922167	-0.4856176337640048	-0.48256859360580784	-0.11461472884402552	0.07860008948364788	0.9248431360805	0.8687313675702174	0.06250704557960374	0.4942483743449627	0.34695111605347434
suffering	-0.047829644857150355	0.09986293033905685	-0.9697612556488492	-0.5682759187039632	-0.18298820031685875	1.8972092814791175	0.23545446955345964	-1.0195653244966938	-1.588065178825011	-0.001556344750497235	0.29208483652380046	-0.2529469658815758	-0.5705318415848437	-0.7056580311803669	0.4345111055539983
news	-0.4237711666988695	0.0812257749711321	-1.7238505483823938	0.03577374470008632	-0.9679138060037671	0.1890256400957558	0.26883178641609945	-0.7377712500764204	2.361004068460551	-0.27127874395548734	-0.7988086102285117	0.6628519479466346	-1.5976226124560884	-0.9612584982582622	1.4706651905935888
dramas	-0.19995828274804095	-1.842252692598892	-1.6060292120146873	-0.9400964291438764	-0.3903564220562385	-0.721239603498925	-1.668166123654148	-0.12995399792854945	-0.5452328482313601	0.1821795707240984	1.94080758664501	0.38995451787425456	-0.24375815317963243	1.0549234979652846	0.7896385752869326
like	0.7579202996173895	-0.5122355946917844	-0.8392041611499764	-0.1362503365590963	-0.14430736280106216	0.2867086147863659	0.10175601408194991	-0.12767988791019746	0.2735163293494648	-0.31865846794761277	0.8452424930572944	0.4528034529517481	-0.4254667760917421	0.531980511411506	0.3821525782081505
human	-0.04028258222481029	0.23593112030703425	-1.1616025381280997	0.1832856072397045	1.0851957306471658	0.2814844554264868	0.4552891854966375	-0.9620539893260148	-0.003258467530059317	-0.7351893733512631	0.6181006771818309	0.5662836648717482	-0.23687379489221966	-0.4297739006736608	-0.08848308453090303
ride	0.5984660203736212	-0.43686770547495324	-1.0633197115924362	-0.587000672748363	0.42793210367685286	0.1121852351648302	-0.9741737491395599	-0.2337842723342306	0.5105408075945398	-0.18066856930323605	1.8787046809947379	-0.19721074443735132	0.275182308398303	0.5271408326175746	0.855388037051526
at	0.20735089142242563	-0.9878644691017029	-0.4326588315702622	-1.0273807469217857	0.41946985764677314	0.04230985248422481	0.6444735345327532	0.32161535440932887	-0.17019897523714186	-0.44113104912470635	0.14344572626330443	0.36822732300162486	-1.3842051612876778	0.8451144004480297	-0.370731014222392
first	-0.29875186435988155	0.14678024029941017	-1.2874879864514273	-0.4557079903447275	0.29312312999940626	0.9247040767252244	0.2651404874983838	-0.293435248161411	-0.4820427487454719	-0.11956036133276685	-1.659480850508928	0.06517454609724999	-1.5445102404975886	1.12967260162552	0.37193704479182876
quiet	0.41298796510152425	0.6332270930456079	-1.451999816479374	-1.3399044849467834	1.243475695086239	1.3075736734793546	0.14565463768120113	-1.364583724025423	-0.20104930376782182	-0.6982952094920134	0.38847991481729416	0.3802897431959014	-0.3999661204243499	-0.5969337717420456	0.7778389216612578
pure	0.447753032303126	-0.8360357274899975	-0.25861615226589396	-0.5754162760242335	1.0081463930589951	0.8827687871528986	-0.3870280554715844	-0.3128165332717394	-1.1326430387666668	0.10882518822876094	0.6386689860606023	-0.09173200657723429	-0.7659400225120704	0.7839265773068236	0.9900303684724121
are	-0.5193527191122547	0.4764729369247837	-0.3022563925779752	0.1528183912842525	0.2511798553644913	0.421272020113163	0.4632635517995576	0.2281971795111684	-0.20959238063187818	0.7477033401800152	0.7634950149388204	0.36160127422185495	-0.9263440143027628	-1.1847295163266591	-0.08364331796179764
far	-0.3464117302725787	0.06185896344431813	-0.8135332765674488	0.07943352079547075	-0.29796948791625166	-0.5290161145580499	-1.5516895189175455	-0.4725731524403042	0.06856839469053766	-0.10923152823596693	2.1709510018285023	1.2790885849017744	0.15417429882526457	0.29003711739619936	-1.4511333685412988
between	0.13116148526798255	-0.34758918700231956	-1.2821796172547342	0.04135499664607667	0.3303035932183731	1.9189835624126266	-0.4193910689272031	-0.6495043867670989	-0.5882092698952706	-1.4017679452095684	0.5769738202588572	-0.36125199497165283	0.057732118839003546	-2.347105305257541	-0.39971568444897276
;	-1.186389429531183	-0.3553715483914901	-0.47591245362371914	0.5329013397354176	0.2615591024800862	0.3700281886954895	-0.29734711199334063	-0.010896435403902838	1.0177535881453683	-0.766037208667873	1.6453454322630967	0.2508128473651885	-0.050186310851015326	-0.08732155885539723	0.08225671781021474
their	-0.46195226479642326	0.6682437405993902	-2.0439694566120794	0.2542228407515829	0.7318151501892249	1.1174256203120236	2.172278877719007	0.2752003920773917	-0.17683333336722107	-0.16112793778693715	-0.5719444511752325	1.9212372756804301	0.014664819142198637	-1.1290531531652404	-0.1528534592842147
otherwise	-0.8658247008747958	0.07656186211492544	-1.0986793481373915	0.11771707250651665	-0.21383072888839905	0.633299903432212	-0.37804072165721025	-0.4304844075702189	-0.1623664431323808	0.445060008575599	1.1429182705272902	0.1942797090770628	-0.23457446633097323	0.2811535064451882	-0.8287415827141533
respectable	2.139837705491558	-1.4071310844296088	-1.55599413844239	-0.8597178218774404	-0.19901607139397154	0.21844946518515806	-0.7337381567242256	-1.1231376714043764	-0.48068859459883695	0.12170952388160601	0.7483922965504881	-0.585031547536302	-0.3522321318679998	0.04796340715666874	1.878927867910558
flick	1.3315190381721573	-1.5271807420565342	-1.5282542299194128	0.0391867258483538	0.2033835933891447	1.0670781967466854	-1.4722791313048262	0.9470132048222244	-0.8603236252191947	0.07490583128724611	1.3035213550926008	-0.687520321807076	-0.11328074966788526	-0.01965173365953811	1.8767455150156853
some	-0.4750541787465022	-0.8551092176219537	-0.6804958941851761	0.9670592848635571	0.7780676334713545	1.2615923473643507	-0.3115917480160535	-0.8924995608994324	0.13385955303832808	-0.9645372613228488	0.045578929476982055	-0.009711005713997634	0.03233940171452421	-0.31307871455979486	-0.13186536571081542
truly	0.11106361914644047	-0.40500841147903915	0.010979341603877923	-1.0136924131462042	-0.19355157137262263	0.6494064124696184	-0.17882259071958895	-0.9853955843734519	0.5114028694471588	-0.44431388207936134	2.0408194187652087	-0.2535622216231101	0.4817307586192293	-0.9883226762279641	0.8045807043832918
excellent	-0.1835084478943268	-1.4470843126178825	-0.0412097940916516	-0.6979759661574073	0.5474888360971464	0.5566413807560507	-0.2285315391100557	-2.077594670535162	0.47515797801227194	0.41166176841094604	0.9659803099502668	0.42141340456858045	0.029367483356337543	-1.227434465935012	-0.4043096456286259
sequences	-0.002678410495215666	-1.2370376151644573	-0.5275914889280209	1.7645787137444513	-0.08354012520882848	1.646273526082472	-0.4527645903065309	-0.7831927432096217	-1.1053289171386151	-0.7259738948297991	1.292980967345281	-0.43297752241573606	0.2964336068439587	-0.988973478822318	-1.1118842275632292
john	-1.1731985491750625	-1.6027530664894565	-0.5858347950260463	-1.5366887536972962	0.40314361501141477	-0.05819605520976767	-0.828634215104	0.9211093192111198	-0.24520423045483086	-1.1585344269294968	-0.7279792731419727	-0.7690651720731909	-0.925912423216159	-1.2455300329023684	2.3862477176495345
english	-0.3693981995634253	0.15689087462013307	-0.7760933881229051	0.38810596926445506	0.1289081268585792	1.55168446888949	-0.1517456913684038	0.40062278375836075	-1.100321017900295	-0.14292200508816644	0.7046334592026744	1.5711986391772135	-0.22663077444450774	-0.40003794466131903	-0.10977732299857507
terrific	-0.22069874713737972	-0.6133079957147137	-1.5403440063139733	-0.3630081228328641	-0.7720828416298022	0.5096557971116523	-1.226172473816125	-0.7233922211618673	-0.7792003530068328	0.11538041192443499	0.15631583680855532	0.14926854870717865	-0.41832611000565817	-0.8353054198631987	0.2969546281304821
effort	0.21084070034473812	-0.30426980955895805	-0.4962189726323071	-1.7218651687120148	0.8823471211206778	0.5952537781296532	-0.17271302389794718	-0.9883039529406982	-0.3155445332981613	-0.6461242920217807	0.8719726500125464	-0.5581089506383451	-0.05317961133427318	0.189717920562	0.3355343684525235
energy	-0.3261549133554644	0.8006637761620947	-1.470188431213393	-0.15533808799712973	0.07209213568963363	0.07651997460503934	0.6271335104876236	-1.155261149152212	-0.49295732917441454	-0.35234996706994137	0.4485803426753323	-0.26502494149156264	0.046944922562046215	-0.37548976107948373	-0.540664426230712
walk	-0.9282249417413824	0.29910877726285406	-0.7424035165284502	-0.46206991692320537	-0.7053631222290998	0.8570225562878498	1.3053741703381945	0.8989579000912475	0.7095618621447805	-0.632911676450057	2.6036299493418675	-0.0888381557756984	0.13022827509525786	-0.28748983662238015	1.5248595178728983
out	-0.7463952435812686	-0.14588166877589226	-0.20474554346652685	0.01434052741872352	-1.0382092695819183	-0.5044090486567578	1.0478586103202978	-0.34947257272391485	-1.0378236556470195	0.5462050096278209	-0.33469124252296123	1.1645361698314305	-0.7467739309827499	-0.08468963764644195	0.09041210087542007
girl	0.2079118092715655	-0.7083108639835222	-1.2959482749939277	0.09685179865108084	-0.23959395211630874	-0.7601448860807084	-1.0838365379623907	-0.30091014738949073	1.4022902683606295	-1.311921260753119	1.2076651430525207	0.11869716676731268	-0.15632115932125482	-0.04550086470052864	1.0276609916234816
mixed	0.1463352074193292	-1.2247663624662204	-0.5827312838933113	-0.1746582606113697	1.5728521821462689	0.7925241748274676	-0.20472610405466413	-1.940657836483832	0.03566252812848214	-1.558274222994758	0.9344394047133482	1.56425224024015	1.217398391419192	-0.31366340327197473	0.46149829423288213
emotions	0.05546427438016033	0.5018261330362948	-1.4032543062368759	1.645290072059625	0.9662784958340181	0.668773153544177	0.5687602160130614	-0.7735512996200694	-2.263607631194377	-0.9801838674281007	0.5876804054575664	0.5479633066239629	0.03672827690944708	-0.9483000399931734	-1.1818450022927753
combined	-0.03107670949219321	-1.3080824375973206	-0.556561114301096	0.8407975158370914	1.4266099832491088	0.9192110855634563	-0.05608425457631354	-2.9641612530089456	-0.2824641223014298	-0.6106721914327486	1.2693028091095577	0.4078582234780871	0.290153299140326	0.67413320500462	-0.7063912488867128
understanding	-0.16590927104223785	1.2141586299920917	-1.3031306032936416	0.09570888828186633	0.6775719961904054	0.14823118251834308	0.6426879649952385	-1.7558825516753116	0.3136893115197972	-0.4255618591959567	0.9198414300513541	1.266751219978398	-0.722019368772087	0.0728345108668535	-0.3288212577250985
her	-0.466848398971815	0.5033598615355099	-0.7229461606101031	-0.5256097069117245	-0.28441927721273425	0.7330371925886271	1.158214342770967	-0.3386866152569576	-0.11293369629284604	-0.9871800176551236	-0.29540881114795314	0.7951958828313134	-0.261321212371285	-0.9684549361769254	0.2092122254113249
philosophical	1.0056119912933126	-0.14900352044437215	-1.834244603388082	0.5540877872135358	1.7069803101340524	0.3758938093240968	0.3264899825327713	-2.2146098442738578	-0.8052979403004691	1.514133807837232	0.09966086168834232	-0.2982645788504742	0.5346479562222562	-0.12117521826841196	-0.5672536748427559
message	0.555157919511468	-0.20005181451592324	-1.7098477335389979	0.35458448573782764	0.4462002726607737	-0.11236182708153991	0.47308290239066403	-0.9955585944864713	0.12073007195915597	-0.22634627187835166	0.9051983598786078	0.11938669231737792	-0.6918175132036293	0.7060916417131016	0.28794740327863316
personal	-0.09042769632454029	0.3847507701075693	-1.6288538106981	-1.113110122601991	1.0668715875906447	0.5735058797504686	0.8641620318766935	-0.29705320499711185	-1.440651097803694	0.37441548846944694	0.3943515295860507	0.4518463978806238	0.9178564567884386	-1.018380079049722	0.34214219325086426
freedom	0.6158371856430495	0.8860985407701257	-1.5148726799454708	-1.0629834033959042	0.5113090697924236	1.2729802404371982	0.8790118714089278	0.4551899567432618	-0.3410960268911995	-0.6125808050072138	1.0609819493693675	0.6095525048627073	-0.6999683311118812	1.0236336391988154	1.959040810172808
might	-1.2987549732835721	-1.0142949784072546	0.5439517511455851	0.005379358602476292	-1.3154072259023222	1.086516220609994	0.7473955339727614	0.1533671318450185	0.3008568202582652	-0.003800262500527285	1.1252078230199447	0.8850664490824716	-0.18321442147764067	-0.35320170066069356	0.9004248764764091
as	-1.7226740141413437	-0.7517057376198821	0.18092727351774807	-2.018769042892461	0.09371434700412781	0.089660966430095	-1.0786010472116394	-0.21945709771629313	0.4426236136951978	-0.44120029982930237	0.5705833243436893	0.13896313803954852	-0.4195023278710119	0.5594675070342661	-0.10877834732467975
absorbing	1.0577743444462986	-1.234319587578272	-0.7880661633362365	-0.1382190075113788	-0.32371079231118133	0.5056199049928329	0.8651994388055005	-1.7709715062565963	-2.2346402085610695	0.7743881709497796	1.2681579266712868	-1.1388281422938702	0.5663568415671751	0.3495202752400058	-1.2228359240817266
character	0.4938427937061429	-0.5790055338305354	0.03154347042316663	-0.017115578793959307	-0.2255563151858126	-0.3866836986672769	-0.21126020788297944	-1.828592763644109	-0.5192887486534806	-0.1417787756988742	-0.6042248457410919	0.42574707724473093	-0.300971418881499	0.21179786428707423	0.181677493665777
study	1.7810245054320397	0.31801345303700657	0.23119823594171096	-0.37619401106362405	0.9204801064299899	1.0095078569985019	-1.4275822860665763	-1.7522199953898132	-1.6031133424408441	-0.6283100012589102	0.5252337998195942	-0.33391933694047055	-1.1039191505277075	-0.04370415818531925	0.31814776068407646
if	-0.9444496880995984	-0.526658998311393	0.6571560226892822	-0.0715866068531861	-1.8436920017473861	-0.36688345893281793	0.45575616541945674	0.9728035721927343	-0.652763947092409	0.6497957666832264	1.1424385666502703	-0.12298260797419441	-0.8653364188645976	1.3272110910820065	0.10692841930709758
love	0.32378718147524943	-0.7127118113204236	-0.1868118329351678	-0.5792313942079661	0.4380244856158436	0.07022448279602922	-0.2955374936099853	0.02845745671577138	-0.07815980994760374	-1.0657746561208308	0.03983798341666123	0.21748593840608701	0.3940070382875779	0.4362848906944319	-0.13719891937257608
reading	0.021913700468633168	-1.801747430570159	-0.7380335483127134	-0.11271969334802878	0.3299427223646586	0.6968835439801383	0.6678439352618712	0.2904199762251682	-1.0374451230198347	-0.6445298551524967	0.6030131393957296	1.8677666947889693	0.3562748522980585	0.15188541490329072	1.1673552645737528
poetry	-0.23572673503195868	-0.8932041677438224	-1.562067562115835	0.46790697078865395	1.5003355749862282	0.38312771730878764	-0.6143566724298452	-0.6079510040884506	-0.5002219573503921	-1.1561995225835824	0.8081321625648675	0.5268253691898822	0.565879198941092	-0.5255596803192388	-0.707326041871271
then	-0.6504559151240953	-0.6789190453194923	-1.2621195850073899	-0.2709427366176883	-1.18403766971219	-0.4835783994654995	0.975679105399514	1.319696364100891	-1.0415519509764946	-0.36489367789828653	1.1309314878962664	-0.18971722009358538	-0.3313445203599165	0.37671936783073656	-0.5071051539949502
all	-0.8373099617358912	0.19357480744526123	-1.084563898482927	0.9849719233029561	0.42773582324419207	0.7956502521417046	1.1129831372935577	-0.14141460500891756	0.7949614858775402	0.2850001476148497	-0.18817961372710945	-0.07553079736167015	-1.0821461967660775	0.6774989796539426	-0.12327052382884446
means	-1.001120615704448	-0.5002883436123117	-0.5958126404876503	0.5347575785444081	-0.33890891528424594	-0.9460153591742404	0.4102566521134084	-1.1141325447861865	0.19708548703862555	0.967679454377716	0.6414197761837271	1.0455273268005212	-0.591516075071513	-0.2447116082810238	-0.1455320590609251
check	-0.2994961041486451	-0.9203958158409643	-1.7792393614518895	0.5468721981601834	-0.8125654655827631	-0.44337790776429487	2.25198610833125	0.5675877002476923	0.28106218967994184	1.7086379965174738	-0.15407067771185656	2.7060089559829326	0.863490432631903	1.4065045882638452	0.8140709976401179
'll	-0.42699215042606287	-0.99387990066713	0.8941193552193264	0.7434832509207525	-1.492043017098252	0.21363700621352516	1.9628026771455975	0.4821196135382544	-0.901369579998109	0.9367462472539192	1.709622072150976	-0.5148986182675703	0.5217568093450535	0.535378685436833	0.15346496323055098
probably	0.13348677412606846	-1.014788093777938	0.8259233800829288	-0.7701815529397553	-1.6139338238395124	0.5240171392507628	1.1466475500527018	0.13950858720704845	-0.7785071056481371	-0.10843269066559247	1.1947429923945037	1.0123302267122554	-0.46025254279695027	0.9707947204856828	1.0957393252942018
frailty	-0.7753613293051358	0.06055861511399985	-2.3046468722323104	2.161945723673529	-0.2741113030621327	-0.45015927907169273	-0.48749244798927494	0.6975494920281111	1.2337101695551689	-0.886039670144444	1.8869391242862867	-0.2971064174071543	-1.83814718598006	0.2731638354286824	1.587673452878018
has	-0.46467078665829536	-0.6821380954995423	-0.7013799388773139	-0.06254225293415161	-1.1017934847108857	-0.4570374273211033	-0.7539701148026756	-0.7263503430355525	-0.48115151466917205	0.8079166578085005	-0.02716565894532086	0.8096449267953963	-1.092004234662505	-0.44800644280585167	0.6047509618532791
been	-1.0799144362294983	-0.386883333438785	0.09567495918280355	0.16441093980501312	-2.540104374109159	-0.09257564387936879	-1.2310424557262467	0.366348427602498	0.4073353927337707	2.0084367918053054	-0.04587583363836434	1.4319915865183854	0.532507909405552	-0.804566191291862	0.750440409802293
written	-1.5314949327902818	-2.282634358455908	-1.6886500635938284	-0.8246101095629235	-1.7362386144792432	-0.40138172661843635	-2.0285493886997363	-0.7951263743159535	-0.31098819966418867	1.1558967650566192	0.23596066195795729	0.447883319608153	-0.06576439190506678	-1.2950544311281222	-0.9765373686190111
well	-0.6155584715843374	-1.769045170930529	0.3728236763421086	-0.91367511331958	-1.161008739264272	-0.29851097391523174	-0.26788628074975396	-0.3068431365648555	-0.37398552048999034	-0.16627950224159269	0.4286207605395915	0.5854960682212144	-0.6642389831847364	0.687176993749823	0.16291178307800838
simple	0.008228360649749633	-0.6866997507929746	-0.9353395025313394	-0.601772000979524	0.14503969242680137	0.0558825077049646	-0.16251818589707223	-1.1707030092211863	-0.8006157021794695	-0.39216210377514193	1.5171478331700876	-0.1466859829494211	0.4748782240823262	0.23294395142634192	-0.14634529578078703
!	-0.7460364953635686	0.831849121371705	-1.9108523768848433	-0.25530896721922053	0.1186996318810637	0.8362691083868726	0.09636106284395299	1.877727213005713	-1.0846410574895933	-0.5054377408724507	1.4571517905905393	-1.0163882287200012	-1.2701101101202146	-0.8318918438648046	2.263208066600048
near	-1.3898232274344602	-1.8908717415605527	-0.9220634502023075	-0.37340993270561496	0.21865153777824609	-0.17727685563590623	1.495843421268296	0.6920586284293203	0.5568964262900729	-1.5991693107217038	1.7168001249587084	-0.45561595449663794	-0.10257145303306647	0.3786646177067917	-0.05458862886316923
end	-0.6525406129774437	-1.2363486200136562	-0.38013183527764793	0.3062989454836912	0.47385853570810066	0.8257414139842927	1.280816162205256	-0.05853413239820937	0.5184720950777253	0.36534691377927947	0.2523285754278062	0.11996051492748638	-0.9724890527701651	1.1643188114774725	-0.00643625312176066
takes	0.4007672752639895	-0.6830894207633053	-1.0633677881833348	-1.0339267076895675	0.14253647731299202	-0.2062707427479804	0.2423508704779229	-0.4986669148848001	-0.7247292718578043	0.6742405948149688	0.22365140043258092	-0.3932861418649073	0.29566374078843666	0.6823223113230403	0.1918284417807762
meaning	-0.15363946331277956	0.8742604391578462	-1.1848462016588033	0.436384302223222	0.9028939455340954	1.4031832995271487	0.9026094463414082	-1.0428602174726578	-0.8188863550929941	0.7094897681169015	0.672563421671752	0.7890455755669022	-0.5789657165398413	0.6659598675205222	0.11553857940137002
bringing	-1.0318691082595555	-0.9545690595610392	-0.8181181140504118	-0.241321950118373	0.21373521338948465	0.261111176144071	0.028612855539325424	-1.0403565093129548	-1.8155754764143568	0.7970194313613057	0.36573090135548214	1.3861642632610618	-0.02915815371100361	0.7715652701061206	-0.3985423875833641
unforced	-0.8115102449686216	0.12603946508497887	0.06896720276663781	0.10010682699642286	0.43445734270567	-0.08395245477688634	0.6162904212073426	-2.3806992766854345	-1.7826475886345374	0.28747805532342363	1.0310988777095016	-0.665336626010383	-0.5860632726683357	-1.9956591903182537	-1.206161551496463
delivery	0.1797198564312965	-0.07134597341833587	-1.7415364576438248	-0.35367550767783124	0.28150900570434967	-0.7533989105732799	0.7697599165933972	-2.1558270178639383	-0.32725781266778786	0.3516203914054652	0.18919375710251574	-0.5127955755301495	-0.5597145158342456	-1.3600453310867293	-0.022968873915388044
toback	0.5495467474370093	-0.4334173444716557	-1.0941092762775106	-1.726489580999139	-0.14054376873856378	-0.22408692166876532	0.9719149761120647	-1.7712018639703284	0.20701466788064682	0.12612754152187777	-0.004235999167596205	-0.6101921913592041	-2.008369938301584	-0.8398192441249338	1.7272799574218327
-	0.241853271313207	-0.2959965976084803	-1.70440221004355	0.3172005983244457	-0.5099184620935345	-0.6410221100044171	0.5528075544351538	0.0021530985513586454	-0.6573906940248262	-0.5979725976737087	1.4677026170777736	-0.35654000367342853	-1.0087858197612585	0.7884270059389273	0.5507646796342068
film	0.7926660539667602	-0.5930365216784292	-0.4376780659522159	0.07628588624741192	0.4373054677898818	-0.3768480543054843	-0.7506578811916083	-0.9257951111958727	-0.41122549110856166	-0.5005548602141381	0.07233658739841697	-0.09531627574768665	-1.1006370747550447	-0.6384563420138326	0.12004577378140724
festival	-0.09659695333105192	-1.7369231037829365	-0.6437709642586709	-0.20201628236537528	-0.24021177984788752	0.20767270765586943	0.0012227418106252053	-1.5363136676595825	1.0522336199392062	-1.0452400356653506	0.3823593330590207	-1.729754924278486	-2.576702392593104	1.9921266900836607	0.5976066765776022
become	-0.5831372106210073	-0.9487811284865915	-0.5074717559981483	-0.023155738719288	-0.4182541958774818	-0.3729058641468249	-0.30162452158391656	-0.6675323186832809	0.7880855240684306	-1.3243604678865195	1.0335560199849416	1.3889837578013404	0.10415447705917374	-0.5268537404896674	0.4106780319075974
fans	-0.05201796681026677	0.6561790116424465	-0.05552412956070185	-1.2404909769264392	0.579222044607629	1.70183022926527	0.8113078724253731	0.4098512831636195	0.5926100290333103	-0.1816514750548148	-0.07412277046235816	0.6762704838596727	0.1695277568397884	-0.32503870243197264	1.3667613313582414
upon	-0.542495655427274	0.17218898594541945	-1.053753370154764	0.29631963025739083	0.056128088810969784	0.17479414910243607	0.7803198200820487	-0.7714798990222315	0.39446425069415425	0.41237996924645726	0.5905061393984792	1.3873339148336759	-1.3650528634790977	-0.7559606167349371	0.7620405185352991
each	-1.6392768722743307	0.8396257260790307	-0.18748517979438784	-0.3229014940673754	0.5448255979901043	1.829148944225307	0.5382947962638899	1.18815094121546	-0.7412205480868441	-0.4602766692611192	0.040013854979066954	2.5082633667759593	-0.6257044502064855	-0.19268097143292184	0.5988328289245407
next	-0.37570866812159087	-0.06268911292676585	-1.294636304423404	-1.8754300255067906	0.13546539352633963	1.656110943306865	0.6950972481522156	0.7809753282498407	0.1881124946577457	0.17146882853970286	-0.05071148538296377	0.6374116109969923	-0.07684324284065752	-0.028202025394550967	0.5444980194052471
great	0.612118666206542	-0.10709304092250382	-0.16575412868421568	-0.893716965561271	0.65000575442017	0.07340310362171176	-0.6890155377514975	-0.42942510301978265	0.4001614193708852	-0.4266768836552967	0.38523387860757907	0.5961871353130872	0.14603623560728657	0.32794160340641987	0.7673833599955469
thing	0.1413283938997174	0.3929827348605961	-0.1596607192561872	0.8549064129853465	-0.2522448626668908	0.7177872784755247	-0.4047590174967865	-1.5556314925567027	0.9821551447051662	-0.41021078890350815	0.8559290012836049	0.04493402322751666	-1.5394458155818396	0.5467424016934483	1.5268635742027297
`	0.18548907333340822	1.3895372587944288	-1.3869739595829131	-0.0910183483140625	-0.9856009368787442	1.353323289858003	1.4384188726475657	0.7692085129851322	-0.888647838186702	0.548519274929146	0.3928936786912347	-1.2870693045441504	-0.5545235865838325	-0.44476949849582115	0.864518015256831
'	0.24163536355658877	0.4505395669158421	-1.8455381405390152	-0.2854319325505877	-1.1458793481197476	0.6017836398845509	0.6654067637724823	1.7094516323596716	-0.657679452053078	1.033311052991382	-0.05381524879693522	-0.9496888451590365	-0.541820715920971	-1.3761761589348542	1.4026676311502235
was	-0.09048607884541116	-0.1919240201609983	-0.11836526082523924	0.38163073836191813	-0.72849387037666	0.3975176373016033	-0.5416216497821198	0.6225870381457208	-0.06675456025799675	1.2291013903890493	0.9961616290642601	0.4316056479526441	-0.17423296908287217	0.6806242544243761	0.8421753637555698
one	-0.3220001069301328	0.8497519690621245	-0.5090139312421996	-0.20057884676418303	0.32384920283210605	1.4301064402120776	-0.023401730334562998	-0.36257835896917556	-0.31920586682029317	-0.08347838420495723	-0.6889249196473	0.5056703638484566	-0.9573192390571057	0.008931490977763891	0.9802781906833679
films	-0.5372454106770301	-0.2048074862566493	-0.015092504620808578	0.939976150657999	0.2176538820815801	1.9467269703321413	-0.1684022444422286	-1.2319569841191005	0.5915638721206167	-0.21991572605388007	-0.38368730133703377	0.28985061297925424	-1.805672439310461	-0.4158298152097844	0.24285758167269456
year	0.2601099691260941	0.09950256262573154	-1.5620695611491047	-0.3256619671332411	-0.057337914519625166	1.6130716121729511	-0.7160368324277027	0.237590509049723	-0.4185287188596256	-0.9479303854925993	-0.6076676955133068	-1.5968804115698467	-1.3968152153689268	0.7174172494852304	1.2751814675280162
really	-0.8012338840295987	0.21285182664666147	0.27852872786615895	-0.10017042648846833	-0.26147034519098206	-0.03832338724076237	1.4902887787643744	0.28958733614328513	0.9723175018058696	-0.08829805728090764	1.8841532623574717	0.14394162383980963	-0.4303284073920669	-0.02819503313586401	0.12351369764781861
pretty	0.23385534712567307	0.03430266959604478	-0.501583187299085	-0.7547909174535079	0.16779187685481262	-1.012466075762979	-1.726890278963658	0.46839669088352803	0.5105642467898758	-1.1891004075536693	0.9871759984873285	0.4119048453215136	-0.6194549733582095	0.1797514252194565	0.627158886001148
actors	-0.9802628682294462	-0.04817916732505029	-0.618878972614918	0.2189849674089695	0.5820851950373372	1.1843905193013315	0.42055973446486805	-0.5087898373368073	-0.6614641789208859	-0.4113793828962208	-0.016088039694601042	0.9704433905148215	-0.35695333906227	-1.540104253062917	-0.054332151474486445
fantastic	-0.9524782896720272	1.2699286794366258	-0.8844353012294499	-1.1210069418900566	0.6996372949075425	0.5602834587098038	-0.3529450250570913	-0.6937147865301911	-0.38400906931869083	-1.517522889618965	0.659065145862624	0.23343782648551337	-2.216069050138604	-1.147735670497648	0.19375759553221283
they	-1.783736588740485	-1.0388520747525107	0.4055362374110889	0.1883665366546147	-1.454306336425509	1.5192045157998153	0.5708235887371307	1.3457450878727104	-0.457545959839311	-0.4651563429275833	1.3164259803434997	-0.0310314282477345	-1.2379995592786452	0.20280046218479852	-0.13845740500377915
what	-1.1915473268488634	0.48144088402806573	0.15921881465927246	-0.48194639003206013	-1.35392974766074	-1.0584200958623013	0.7369738671465522	0.6863258684404514	0.25746185464146326	-0.03141952466889776	0.9124042556720389	0.2570628572918007	-1.1323610790199818	0.2537767783603494	0.23311820353024038
makes	-0.825826161872236	-0.35297761589065035	-1.0268063255010476	0.1412243636640745	-1.1911318198080467	-0.36533091022762504	1.7898957255799934	-0.47042948817456326	-0.038690922635067904	0.7382990736659362	0.48275838989471986	-0.6369186786206005	-0.8837433171398283	-0.2064588043028824	0.8304976236067501
worth	0.1308457457276252	-0.1511833309797852	-0.0186292811582236	-2.1329707951673185	-0.34195847922174394	-0.6975751949790769	1.0652744104394682	0.9963378492396893	-0.27420072506910664	-0.6372603939744574	1.2491976398897866	0.1932418112538744	-0.43525707131710784	1.481600628656936	2.0900648180828907
trip	0.8294025294001833	-1.0131048140689183	-0.7403754039032687	-0.7558049531207307	-0.07582811394563804	0.27632879141216293	1.0593702067352142	-0.0734002918330402	0.198628272273912	0.09520851166833225	1.3075252514896563	0.8422595605894244	-0.2448802974388341	1.889205123323975	2.2653918370351094
theatre	-0.1071338457255332	-0.29398627276922107	-1.5035773225328595	0.008782388871413138	-1.0631421848901592	1.788736619472769	0.295310151831715	0.05629751731690724	-0.5656302470962092	1.0513417977775532	0.46781375731549235	0.6887424951260185	-0.3629349483193369	-0.23611330622802018	1.1324219953190187
-lrb-	0.06524876366307386	1.0754907214594707	-1.252174257164885	-1.7356703722920903	-1.523159799760398	0.06342269804273229	-0.7715914524812479	-0.23931685076030582	-0.7383407811613907	-0.17757697270215633	-0.25633163502004674	-0.03994181608746654	-1.8680838260038555	-1.2679869727392505	0.8888745991584421
-rrb-	0.3345770758357942	0.6414600940476098	-1.8094801971072076	-1.6066773655284539	-0.698577170452863	-0.2632157089757805	-0.1567222348986046	1.038675411564888	-1.1414333703435264	0.6816604267626449	-0.6501396646933405	-0.6520847786771563	-1.6519469901542472	-1.0329645929764224	0.7144761736000839
idea	-0.8177895333569037	0.44501677895188124	-0.0496432911406236	-0.38400070980128076	-0.2771431669563488	0.3946900477225219	0.7891685529210777	-0.3219745897176478	-0.9310798039184113	0.7004536617550418	0.6582572169541061	0.35243987097524093	-0.865290453505842	0.07032268042838807	0.7264375453460734
making	-0.37488744645320693	-0.5414677051709421	-1.0995702691450946	-0.8785808743629316	0.5830248604443063	0.2238067010435909	0.46208632761786195	-0.7834621437372167	-0.4004581243062777	-0.09775763255831967	0.3251182921888369	0.7995089876929509	-0.7702990590651646	0.1520379360972798	0.9831732760998279
kahlo	-0.3318378416382195	-1.9139026016516323	-0.0776975885936988	-0.9309280267799949	-1.0720606384312328	-0.9474591519969977	0.04524126974447068	-0.6583953344904192	-0.02561110070418149	-0.16037703979797466	1.1995075397283954	0.12715203805472136	-1.2221834941221466	0.4601241216601948	1.4167565699695437
art	-0.45462049161786117	-0.571876863633098	-0.9747929647049216	0.264011523336762	0.808969912627632	0.2824416264288368	0.2536551136121215	-0.5802302478362183	-0.5838235229885556	-0.3406416395712244	-0.133762545671249	-0.3794996784599612	-0.8934805957616937	0.5889460958958569	0.6732783975687511
living	-0.281202421783331	-0.3735537848852518	-1.5602792072480747	-1.3741456133769272	0.9003908908763152	1.122967147084487	-0.37251425046767855	-0.32963956354513546	-0.5841789058235962	1.1196055068863242	0.923617149788882	1.499269015382489	-0.25889670990259317	0.7712210733578253	0.9692635683249133
movie	-0.26077723515952256	-0.438414438654567	-0.17923345003672697	0.02128789881646933	-0.060907276247422065	0.15200304780064375	0.015232237740326976	0.07115732385292473	0.21565479849227653	0.08318734577672271	0.7948187187886886	-0.057391166182191256	-0.6330885172215144	0.7900678802986552	0.7850515880122875
often	-0.4777423681101006	-0.16060525877640808	-0.019411117178656623	-0.9155733732721467	0.20859907477416395	-0.27252739424541617	-0.7071261545287197	-0.7492565248262797	-2.083926100245527	-1.3604035748328145	1.3652399285586827	-0.07139715676247366	0.5904371783003293	-0.19314747266881727	-1.361103578651157
artist	-0.6348094409978022	1.5244371323428032	0.5763503100345624	-0.6085171692855569	0.8001112959439424	1.1016592579284652	-0.5430578110061467	-2.3537547815029876	-1.2277092960133005	-0.4652507320270658	0.08344472279773685	-0.383026231938396	-1.5184876897423458	-0.16163430493780356	0.8268402989699697
into	0.8577625329473907	-0.9415931383765443	-1.2270473991296647	0.7531007961214232	0.7858713678497595	0.18219484985723178	-0.282770413217699	-0.383916404128117	-0.7702078978791078	0.4990323538146868	0.10066387658660392	1.2558039710799562	0.5591366753954667	0.7471757444027008	0.6209000717594845
own	-0.4282052660910023	-0.4010845520229229	-3.0747657627209533	-0.4328018988985831	2.4252385063766937	-0.7611406217859928	2.3865336846763787	0.41226629526109493	-0.10384702865566475	0.36274279638762225	-1.393873422904302	1.8221721499973282	0.8739317822764552	-0.4263641180350158	-0.8507985706943813
work	-0.7028235674797918	-0.9580568114274159	0.16088839249525178	-0.4755663077443381	0.012484889768221652	0.5034397770571296	0.0077030880443267336	-0.5826729545705818	-0.010239651391371063	-0.49431125467031145	0.23142384942926342	-0.08408576550667929	-1.2449400910593464	-0.4290686091997249	0.2811533128652419
n't	-0.8767349800618165	-0.3186586147473869	0.7632596852476092	0.43213370206303753	-1.288754802315578	0.35238721225567704	0.44373538094160836	0.5732626836910093	1.0239734523966753	-0.14048523112950329	2.135856326648362	0.29634121661935253	0.4347535342186256	-0.6948876877202399	1.045491726806408
done	-0.5819938468001146	-1.0382023916062715	0.34655704523207476	-0.4786222614118648	-1.7333793889300977	-0.40599928284289744	-1.2800476752656107	-1.176623554174088	0.33966896978820155	0.2032863022717872	0.9112223873161007	0.5860723015200333	-0.3684766139351189	-0.44045503648606416	0.06505174473123176
before	-1.6023504059878046	-1.0864120225655904	-1.6069536085945932	0.021707242011798356	-1.1618002620303471	-0.11382893002945071	0.5841131410861895	0.40881486167299314	0.7962946851175965	0.47989773878100483	-0.27124361768779703	0.5777486924765005	-0.8316148020361362	0.7965101319722576	1.2132851732622363
never	-1.4237295705791768	-0.42140436257519576	-0.3529326475313185	0.9320499598586982	-1.0164891703562955	-0.9220668087107725	0.5739995668049989	-0.5503459145502287	0.2223522229312871	1.3037974667652965	1.3454690598082317	0.26401438098860847	-0.4965022799022013	-0.6382798036909234	0.5995507219522831
vividly	-0.9512438656218567	-1.5361983242332609	-1.331014971427177	1.5917425809756125	0.10556996074569135	1.0636610178231964	0.10438607304909733	-0.3928268140204443	-0.5682109732104268	0.1698147179062372	0.7682649060736388	-0.49460296039339335	-1.0692744568998145	0.1981958348443945	-0.5412061333900675
much	0.1494282042506223	0.6506032065269027	0.03754198441263201	-0.3048372804762206	-0.25687630608224266	0.8039193844409545	-0.32257137182939744	0.4227751127179232	-0.43656851892787407	0.4983039336506924	0.8520017749414486	1.9395181182691272	0.8425110713554937	0.22691447567825357	0.0205600871370194
passion	0.9159696558135739	0.46889688823882747	-0.8770879368302595	-0.6305510800686813	2.2065521063642755	1.946302897810066	0.540153363940306	-0.5940419028899317	-1.1393098053923014	-0.9703481832226504	0.7294594783233814	0.11494087408389146	0.13036512233327324	-0.6970914151875294	0.8734930119468362
take	0.01660061984539485	0.4536529772516406	-1.0487004601542256	0.035913339691066554	-0.6432423362718759	0.5735554745474709	0.8335837292277419	0.17333129754210136	-1.1397162531049083	0.35874302176219774	1.0574917790379885	0.9044561955259993	0.4716635345199384	0.19784066174621953	0.2795669970991368
care	-0.6368853550657918	0.41537937128602653	0.12857237561854373	1.2625242212815189	0.17012871190828682	0.6016275512124151	0.8457426710959417	-0.7203712344262663	0.660113716354984	-0.24155822658625725	2.6994690414858047	0.025346836000761264	0.5735743803839042	0.44331064477979554	1.4853503051524055
my	-0.011196797864486074	1.3183608817014065	-2.326609639724292	0.479272619910995	-0.34716178362193095	0.22470810411461128	0.4465729585663353	1.3070753352081894	1.7393854386209537	-0.07224167667564685	1.57521273833868	0.29314318083247914	0.7788109008096448	-0.6329782933556882	0.7149321591453347
cat	-0.8036133859731125	0.448503871281162	-2.1927388278590136	-0.6323405610942973	0.3555471885073769	1.5562636692221015	0.5697499419281561	0.26108794444688677	1.5032037817033999	-0.2700241700048802	0.6762489295552008	0.14414283925785765	-0.5486731603443018	-0.5984076277333624	1.7382553617247205
honestly	-0.5533775855769707	-0.5317404850717433	0.4405221453025846	0.5958803496236323	-1.9990337065354589	-0.24645181738243838	0.6246978680482335	-0.9721752653455227	-0.9614778631658238	0.6555638299575869	1.5853014377208416	-0.6252654150309576	-1.0040894369093072	-0.04406292829425701	-0.1352070714419375
nice	-0.2783467909339674	-0.12930188464260717	-0.38393537452508875	-0.9517491742296063	-1.0102203740187	-0.7617429777050324	-0.6429344484848953	-0.20094746869287194	-0.22980560960656082	0.23288850079539788	1.0099072117736272	1.463179666825492	-0.606662987839629	0.15114890126210664	0.9146212293062299
little	0.907176822420708	0.07402008790918285	-0.2856836538559421	0.5789741880256266	0.7475545878040357	-0.6353406284829243	-1.6998365438562861	-0.5585970851238735	-0.4713470843032094	0.06788224095174289	2.3429980782106825	0.3956981746390812	-0.5252247166069834	1.0277133907763036	-0.15992428694645477
us	-0.571356837144231	0.8031405290061568	0.3261020161683855	-0.9428100539589024	-0.9069004663530367	0.6526244158629042	1.547445636107321	-0.4403807582373435	0.5985217027466299	0.8063085692099086	0.482295799097197	1.0916278701574655	-1.367771355893878	-0.25870665450135266	-0.05054548126530592
examination	1.431937470328914	0.5105235439814297	-1.8490510493573507	-1.2339665748473492	2.6009885760760456	1.319337785199244	-0.14214663743149278	-2.4815032895584097	-2.281450775388987	-0.7321121373230658	0.11495792111792236	-0.4395390155780395	-1.1820504246921462	0.33664465216976114	0.34819455730899407
young	0.2734329152820394	-0.06489947657914186	-0.2670704560530013	0.03221357618629736	0.9343988184355607	1.283286686919706	0.2702419425278428	0.20914829148667624	-0.28367540653856077	-1.4827551492375803	0.6704131557667804	1.2658982405505539	-0.510648255324071	-0.6546606482184723	2.193165529351495
adult	0.10017936633610036	-1.2018199367177314	-0.058911516423393206	-0.8974200766202163	0.6854077750683887	2.224689378947004	0.10767100391496043	-1.148943080476201	-1.3423299282098737	0.1831508887761127	0.4225464454465795	0.41793083698631617	0.2446319366380652	-0.38653315055216486	0.09762927454167847
life	0.3974463311670662	0.6085948223509576	-0.43381184805912976	-0.1045162256851842	-0.05813047729959153	0.061629147883206226	0.18223513648593492	-0.6781464744071811	-0.9330890493267738	-0.9109163006764025	-0.06646327562378107	0.36005882113464505	-0.45085834442206435	-0.47077582749106717	0.6776443295581572
urban	1.0377939164418137	0.6409489674881685	-1.8727819993584944	0.15522122617935558	2.5778002983918213	1.5482975740110454	0.7086219544469811	-0.4521985385504537	-0.1287396039186775	0.21798653699491505	1.0744703382451282	-0.18720429692920762	0.24658613011143948	1.0912339612909725	0.731712979075057
south	-0.5954082496385661	1.08086831636923	-1.7324078702919987	-0.7667430238050927	0.33932700629518986	2.2273988337389468	1.5640899448733199	0.03963179693618085	-0.025090120535151333	-0.6983713062991768	0.27584603406729036	-0.6925248281853008	-0.19013407750503863	0.06146625774182399	1.177731020064161
korea	-0.5557579144450657	-0.3643356459775411	-2.614668365171547	-1.4711342807720853	0.6638553727929978	2.0063422837462612	1.0901328794116296	0.6744594636527463	-0.1781292191138959	-0.49193035387778783	0.40947745776899414	-1.0862580727817368	-0.22005359134792668	0.46612163692415287	0.9492255629757005
through	-0.5496585145719557	-1.1702749612803236	-0.9482525732974911	-0.2565930087099332	0.0585307068412827	-0.022295661862176464	1.2466417819910838	-0.7596538803405943	-0.1608435912205305	0.6430254084553705	-0.196703086995216	-0.1468990251072556	-0.11955735478305152	1.1083847337610189	1.0100998157532275
minds	0.3370248449142148	-0.23051618018045744	-0.764556819122923	0.4864591971512726	1.2575208195290073	2.2903597254663923	2.182773103837449	-1.2469232350723434	-0.5103425515162097	-0.7123476041105035	0.37685225577558634	1.164605038336812	0.11380324002247533	-0.6470116227966786	1.1701260455708131
five	-1.3154907228254922	-1.6105013210784058	-1.348762194705773	-0.23720532970833802	1.032614820386324	1.0747817586491712	-0.5063985150458878	1.8579658591613502	-1.0589257275720596	-1.2017799224886971	1.1469031970244692	1.5495683064367183	-1.0986905228026076	0.7772184548579842	-0.019714118686765203
life-affirming	0.25484912086414996	-0.5888689874367592	-1.5974519461106251	-0.4095217034991442	0.9276197050770406	-0.7995362691209366	0.5839843655655304	-1.0671458361752453	-0.8114661116441826	-0.6059147306541733	1.0923890413948505	-1.8803067081615823	0.21040558809208448	-0.2838923184137314	-0.7609037811253565
its	0.1829799478216989	-0.35684972302782775	-1.479939371579205	-0.17715906805342413	0.40385712723325207	0.3643449794461173	0.5029777633703565	-0.49697269600160965	-0.16191529217281894	0.47089129191368617	0.1419885610981051	0.1555623460531554	-0.5536076609529486	0.10528145075553053	-0.9527227237285354
vulgar	0.13405539142012513	-0.9324351370608986	-1.0179806401855742	0.7670885249238504	0.17132218681394445	0.1333121774142031	-1.1106379834400462	-0.5961958700613487	-1.037189727018427	-1.1452859377645423	1.7941073582971367	-1.5581510652871418	0.3794934312779526	-0.8836483475756904	-0.5485053907199791
mean	-0.9490430572343946	0.7822973027504179	0.1566849445457945	0.2775710851279122	-1.9768411100628445	0.16889819451589927	1.21702806185478	1.5161529042647535	-0.0780742408826601	-0.5706322155498413	2.571020629066113	-1.625863545169177	0.11206037561945587	-1.3283264188498376	1.1649959544895392
i	-0.8902463026933098	-0.21023363229516973	0.9837660060292756	1.6750730231569255	-2.673036782457449	1.2304800936769658	0.020447961676560822	0.47368055594070185	-0.07725301116259531	1.0882973838951067	1.785291555938651	-0.417789766784542	-0.14443346498548504	0.3178258635021649	0.5051566245252564
liked	-1.2190773195759856	0.13161851426260024	0.3168019893229921	-0.03492609221692744	-2.0950583576881785	0.23126306121774537	-0.7779671120158995	-0.5708328011331381	0.726930395029757	1.5128911448586757	2.2225756058345603	-0.4900866829536226	-1.775208253655502	0.42496052816097524	1.5700645744689448
empire	-1.3662618036030378	0.2581671680777905	-2.2709232892723277	1.2328630940192542	-0.6201673913083569	-0.5625479046718016	0.42036921837496544	0.6995927019671095	1.7557615225986796	-0.7429011539910773	1.5961063817643308	-1.7087029687556736	0.44199676281985256	-1.4390490372602138	0.7837606554455211
lacks	-0.15856302993807309	1.8105869329699404	-0.93050083570371	0.571470645896524	0.4867173383121509	-0.5085766239188807	-0.40449366022583744	-2.08414335758696	1.2850503343212731	1.7105558947615132	0.7287778443164571	-0.037482790412846384	-1.2561573246756486	-0.6620900666653016	-0.15774674790856769
depth	-0.1915722604939759	0.9043189981803278	-1.857204388843761	0.825654130099589	1.4087147526119521	0.5329340806673715	0.1867709204993882	-0.6497223013084839	-0.5833799428580493	0.3067155326717046	1.0567444805865631	0.6092530654586492	-0.5270306708549478	-0.6788227621089998	0.29871562739385205
up	-0.1691973492395097	-1.9793354799758203	0.1543948357005207	0.9712356929933539	0.5437810382525561	0.13672107007026402	0.949930883716218	0.1894813963221772	0.2820810088368554	0.10270842348442209	1.0704118779204321	1.5082683273018436	0.6054954997414842	0.5116744861061	0.3407523515067887
heart	0.025345328518368904	-0.2603618717302418	-1.6012097963966259	0.10821835611464448	0.20426310389629054	0.47743584984507537	0.1379665966270252	-0.05230916380302253	-0.03573537480887423	0.5471771500969671	0.7303204018685985	0.725169138177365	0.24242516715132897	0.6695702838745785	-0.4698828249784418
silly	-0.16341394819272492	-0.7234059894809675	-0.9272668004882896	0.7112969451535802	-0.7590015868962926	0.09565679847564323	-0.8626027422695973	1.1727888834196973	-1.129808764995415	-0.11933492142623721	2.0806963213560756	-0.4857107037697316	0.7576397445981455	0.18881600302153673	-0.7655635612643743
photographed	-1.0634459051004095	-0.9115028145263496	-3.619488022413752	0.3862138996438329	-0.4626091737105511	-0.10792265282933378	-0.46127818437261225	-0.1812196554924631	-2.816864358060021	1.2880142045478302	0.6211376258015728	-1.0872071125871183	0.3350785764402665	-1.799174780626561	-2.045452272383729
rather	0.3680521186742808	0.9909786579804588	-1.4665948896765955	-0.34069054719773695	-0.557942817510857	0.42650292863383504	-0.6956779875633086	0.17285397979018374	-2.234145412963591	1.6923068538265023	1.0146560201182082	0.6011984983976563	-0.6368467488035685	0.7623158831792208	-1.3151652118107207
time	-0.8534150419850379	-0.8143684219003382	-0.9283206829289925	0.3618776506276924	0.6735135238758209	-0.699959816384554	1.0106471187156556	0.11144481493192732	-0.18231093957124106	0.27291244643949003	-0.129153962838909	0.5533311502602618	-0.7619394290290963	1.4624767288651843	0.7813847330499584
always	-0.6949272646054165	-0.9146326852670529	1.0479639156586602	-1.3358237845319851	-1.4034837943124865	-0.9012622963721951	0.1307169290337535	0.1454882917825715	-0.07158188389064135	-0.6014393364669517	1.5557710948939603	-0.2473975757881921	-0.34729245416561894	-0.7874735964003915	0.6660331519899038
most	-0.21436104637708425	0.2422731993902659	0.48618144417080267	-0.67629279379068	1.1483134344843942	0.8107790371037457	0.19769534920626458	-1.9017523712749211	-0.8169261071442475	0.27150332771184815	-0.5332054754527332	-0.22235259592603807	-1.2397700380467493	-0.17236232094557968	0.09490677055836672
wilde	0.6527607567545162	0.8922375118922435	-0.14262929896144505	-1.0408487922917367	1.324574635018018	1.401006122666518	0.47322486001470226	-1.4840448796389318	-0.7064914181761841	-0.017814042532139376	0.09139808455945597	0.7944260865265278	-1.9958328640701661	-0.14470096393182186	1.8266400750811553
droll	2.7887399817763536	2.2906827970082135	-0.4978035165719314	-0.11962704244370986	2.6934527969625637	0.7924386782558849	0.8679071994444689	-2.783975399385615	-0.5896173598803196	-1.967007619286393	0.9372204648913682	-0.9154025198773617	-1.1345296329997347	-0.7599933844980458	1.6814680464568872
whimsy	1.2242395019201513	1.5820440524164747	-1.4083403686935112	0.7122129093559109	1.1239555950619073	2.3484647983651286	1.5079336664688316	-0.5602993774735006	0.5203951728567631	-1.0039116134322097	2.153576316935333	-1.9193050137664724	-0.9723887025731355	-1.1770961396375546	1.5891778665281455
helps	-0.4057852982372032	2.0903909808090844	-0.5193188468230946	-0.2880902941366939	1.0674757433647686	1.1031780952104375	0.7610106424635849	-1.5112160182306449	0.5759913378115956	-1.4211454181272705	1.8954692853459525	0.5584087257182264	-0.024329390579899912	-1.6381942228205832	1.0660304337510527
being	-0.733545048525162	-0.27240389246707164	0.11339135792353261	-0.4776731686722778	0.7479927432915287	-0.05001482810393598	-0.8632673035248297	-0.6115378539786434	0.7301433230904376	0.04989342192366769	1.5574266462661943	1.4821840663516554	-0.035662477860020136	-0.45979819457623544	-0.23302144626295818
earnest	-1.6289530412765685	0.16497437324842246	-0.5145189358542563	-0.6357406833859806	0.19571490430417682	0.15060616035417873	-0.2530068750706886	-0.9294966209165789	0.413312437594391	-0.6201659753128815	0.799313147281369	-0.15318300917566077	-0.0032793522529989128	0.19199426794562308	-0.37835300412233974
overcome	-0.593478032449794	0.06257849054359566	-0.5809826486569372	-0.42299696241777274	0.9943749697617847	-0.23037218975196516	2.844623906562007	-1.4191257608933778	0.7835826908564711	-0.6716128535146567	1.7414010083542686	1.7887025774043144	0.599566423477039	-0.6723929542991914	1.2223458096608781
parker	-1.1866581547558472	0.08671905158387827	0.5757618787129855	-1.5795976926159998	-0.9191249119378556	-0.5445048136973136	2.2249915963733984	-1.5228869711020967	-0.5977667404734511	-1.3778822237438124	0.7405608898972853	-0.5945408522182317	-1.1181358182753984	-1.944689283153794	0.7378561507942587
creative	-0.17715376347609268	-0.3128386033834787	-0.7860974741893101	0.42852502811960597	0.5238751371198871	1.1967967276139957	-0.016744229842797803	-1.2367799153990038	-0.8331117148590076	-0.7295679420288688	0.8673247768445222	0.6979885554192838	-0.37930413545380093	-1.2046092790882708	-0.17433970934613896
...	0.5701794364483951	-0.2533479633898545	-1.491840433607984	0.8524993377707792	-0.12745251474652441	-0.32410206243380707	-0.6626178138548457	-1.20405789880094	0.16308484043792232	-0.10626920617336602	0.6729057534221262	-0.6961512495343354	-0.3102739409856608	0.08574476316261105	0.2061069250167232
lies	-0.5704014447924938	-0.4887483784113694	-1.9629579330492464	2.1189444907880053	-0.1782953982419968	1.0716226931053903	1.7802250901051435	-1.9565366741129235	1.8544451720121689	1.4663156426466384	-0.7059995258885018	0.2705621341531294	-0.4037562491344975	0.025996569819510373	1.220631340789612
utter	-0.3782669344146573	1.3349898910504379	-2.1223922592835147	0.6075788486895974	1.6861804769682982	1.0435121510805743	-0.1927681631570451	-1.9516109977063856	0.9826990238200891	-0.28175398001078134	0.23383680245279836	-1.0167146736705241	-0.05224549847047921	-0.5272306258798128	-0.6369099682416481
stuart	1.771183993655466	1.0891299472721117	-2.625404596996493	2.0325832452066503	0.42217543310822236	-1.0333764445461604	-1.7791565051843508	-0.5278713473261589	-1.12823169909072	0.20699750703373554	1.8974033759967244	0.23509627429464208	-0.7400093595421954	1.2778677562851852	1.6666087384000876
very	0.9006721414849539	-0.06836247283222169	-0.4082050735164275	-0.4875957997986962	0.8839605324822154	-0.7426607668452782	-0.76799446193494	-0.5068223562033689	-1.1249950044776	-0.580429999704922	1.34792654788458	-0.014885759411262876	1.4657876549319635	-0.2930443025747564	0.6959712817730394
path	-0.46971560309340443	-1.3313327342260857	-0.34246735073782586	0.04234609578889926	0.5939448783269141	0.8393730703039315	1.559104344336239	-1.4578844422624093	1.3473106015957899	-1.8649859878820854	0.819536723737975	-0.4937829705448195	0.10951811175906603	0.7423406121219833	0.6297068483981739
ice	-0.14451309771366505	-0.061367575330854074	-0.5092822779115163	0.8096968317561003	0.7433583545124254	0.9709811279899282	1.8988026171327257	-1.359793180728941	0.7457589212728369	-1.9540498855889743	2.777060297033647	-2.0265390574855098	-0.39013530159004317	1.1709154812070253	0.45185776292096014
age	-0.6370951783789489	-0.8953975678848618	-0.04736018117771157	1.2105364435294665	1.6731323533620373	1.2307775264867729	2.3556253713355275	-0.7791530053848498	-0.13511449407698978	-1.3947394520427774	1.799513407311081	-2.067234047542742	0.5001534165703851	0.21778054614782785	0.4563042830169449
follows	-0.767094108437773	1.0902906734698776	-1.6851985995193854	0.5190946314405045	0.3991603675863249	-0.7010214186054821	0.46895157378715446	-1.7065711055054857	0.04238211009221804	-1.0714172191597486	0.003673874701251023	-1.3614401543525438	-2.3802826673049147	-0.13573732508017183	0.32055401710531184
closely	-0.5253849098772175	1.2390011917835302	0.7286838421750027	0.07809153908591648	0.51919886403274	-0.40965855075738244	-1.3852305796276863	-1.383603754499353	-1.6409577454345656	-0.09771922117748416	2.4851106999776778	-0.29802707718666066	-2.7747504704778243	1.720892595235959	-1.1389473384623314
though	-1.019451724259226	-0.9814548920362847	-0.33820385826247923	0.07277203093037796	-1.1967734442769298	-0.44561950481805573	-0.8547244238424629	-0.40387671013239757	-1.2754723926217113	-0.26087294764644164	1.296900244936166	-1.1727643831165047	0.06996109865201527	-0.4693071728840469	-0.4135847192071039
giant	0.4889937156726376	-0.6489588980666672	-2.1033407555112014	-0.49898730768148536	1.1688684219643797	1.1908836205903868	-0.4233847850792026	-0.5802285686320494	0.28461111212260726	0.031434841161169375	0.11533697265492826	1.327048032099166	-0.04756793549235053	-0.21613051157288315	1.1064352388213168
jones	-1.5285461507625073	0.9681929712687599	-1.542043649993916	-0.41155090262925004	-0.3154581402548316	0.8597645051918892	-0.04211208304082692	-1.2546151333078588	-0.6875253827506775	0.04652134947809028	1.2393803613400882	0.06483533243097805	-0.8212298897171998	-4.1705162728261485	0.30416995954172676
who	-1.5372266167006805	1.2196438485855485	0.5244676021946022	-0.06631750149296715	-1.862513571418981	1.923538151472519	0.5415079842171909	-0.2234087582363794	0.16683543030989234	0.5463332367258849	0.8999457262869339	1.36649538118031	-0.4205396842451519	-1.7376652701236015	0.6560344755629994
matter	0.030966272845364795	2.4487484818254255	-0.2288771491520185	-0.23885557719071754	1.0445188444833788	-0.7893969719231373	0.6700467132505042	-1.2074897720509208	0.7722432401159083	-0.5193707952504671	1.1617825137953028	-0.15591020290484575	-1.2077725746845953	1.0015812436129454	-0.4102524619478614
weeks	-0.9755812272404178	0.9085930425379709	-2.6716919338407332	1.4477868981066249	1.118592287632767	0.8560955841435948	-0.3674195374371948	1.5464903770363088	-0.22511849508089554	-1.0863637223593692	0.7400333078541457	0.8661669777530236	-0.565731352899284	1.4300468667851418	0.2565726629725709
release	0.6483260286702934	-0.16375052956150293	-1.4262478511207997	-1.7350011219789188	0.19376954320338433	1.0130085683054033	1.440988949255685	1.324748502677696	-0.7873072206911625	0.7754528036179879	-0.05713513266642822	0.01066737280921784	-0.16066696528262014	1.4751493892617102	1.2720043018261722
humor	0.008667296509043076	-0.23056277843440998	-1.5283349802469066	0.9457540230417667	0.945919854435618	0.27241414361258076	0.6459646081050348	-1.3094744042159798	-0.44708788585753145	-0.5746541585011473	0.3583504517575933	-0.4008418088127207	0.3971743020544211	-0.8483018563125446	-0.0015009591608232675
speak	-0.3654236990571883	0.20282494563739106	-0.7752299657005834	0.4651552404740251	-0.2188178546163315	0.8734025570628683	1.3952113694231034	-0.11505450528734429	-0.11312378074933399	0.46384555162248303	1.142990853575566	2.44410100389843	0.025027046066985664	-1.2389854493141654	0.6057845797181418
after	-1.13063712668651	-1.3849470597008748	-0.5627591700019504	-1.0500044949375984	0.35161489060292833	0.978603578030027	-0.13898475041622893	0.9639075697653513	-1.2102781586837357	-1.4224245319665636	-0.11316123234524433	0.3660688913231197	-1.195761443144565	1.2940526447255967	0.2651570992143114
witty	-0.3649297379296115	-0.4086045430592613	-1.3046362208757283	-0.31168515497650595	-0.22776868736796832	-0.23849929475033949	-0.7170386725139396	-1.3748529148033808	-2.4104551335942213	-0.6506109602276363	0.0755259901806995	-0.450643344625113	-0.5903319645709753	-0.7608659288547411	-2.0196329707875105
silver	-0.6634960427399216	-1.687451277536839	-3.8271211356736208	-1.130878644900593	0.6740209851407012	-0.054416979121891695	1.6212423483272747	-0.2582783119313418	1.660310800376872	0.5822462025669976	-1.2366113853842222	0.5204574202921495	0.1833121610860533	-1.680207162975095	1.0474079741386961
replaced	-1.4243065542359759	-1.763441930321076	-1.5951083590299038	-0.2899989550457617	-0.6162751864123516	0.00578776278567994	-1.567193580667809	-2.18515506319064	0.7624199589821397	1.587736276032952	-0.12411690899137473	1.233939218322274	-0.38209134978557313	-1.488317357392614	-0.05933918289929596
cute	-0.9733012313010071	-0.13451859419728746	-1.130446933050378	0.22946207318072576	0.8724475802256242	0.05098438440675637	-1.1445872488118578	-0.43706243861512767	-0.23783905895899382	-1.323753377248319	1.03364630455279	0.34403273654693456	-0.6053602802001127	-0.41269030686017905	-0.9762792509989424
everyone	-0.06609053406709636	-0.3707503984112869	-0.13733729778011217	-1.0767013840206907	-0.046323230698072704	-0.12005173859085194	1.3716632252840877	0.4433778747874296	0.1654245540714805	-0.9974731781077062	1.1903994054033589	1.1356375066665865	-0.9271418941689953	-0.5267030908705234	1.1711012500863118
everything	-1.6305754037030715	0.5701276991833935	0.05368635956526613	-0.14002910330504215	-0.45534409838853807	-0.16883691967023573	0.3362440918899696	0.3317219710519794	0.5847583387488668	0.35241933924063423	2.07185404340861	0.9965316067119246	-0.5559566766087445	-0.2828361765916174	-0.23336510643709962
around	0.11346607708798051	-0.6099481212351967	-2.0328325505608276	0.2408536207788839	-0.13171342022897786	-0.7283744877163891	0.9670064745640523	0.6067395627435689	0.2700427534202132	0.4485882715655278	0.3972368318394104	0.6618723268200815	0.49068932651521285	1.363237072330078	1.24465425872795
there	-0.8650061775617068	0.9994094959000961	0.6015259751014869	0.4859896542375516	-0.9345327943085819	-1.4118252108302158	-0.6615470802076642	-0.09459439679846227	0.05626060928887422	-0.495895546495983	1.9432108950984563	-0.03866580956947191	-1.3832077748214875	-0.018764168942621673	0.28988783990760125
comes	-1.2718919483830806	-1.050648914615723	-0.07047312364456892	0.2878428696055503	-0.08887172907823095	-0.21403263146417362	1.0609549896360038	-1.1516096514612237	0.8447513298068565	-0.308007520999491	-0.2315090961939993	1.819745818975863	-1.43371242823462	1.4838442580284634	-0.4734124139988733
from	0.1791796076573201	-1.0833917799382324	-1.4870912601492114	-0.45220408774331655	0.3391236324698943	-0.1821141356860783	0.8162654233728284	0.22005679046731408	-0.4641701431126144	0.13547600099840024	-1.217401002469492	1.2185096252601797	-0.17518734199300467	-0.7750100327621126	0.26460745249029544
performances	-0.08951123247372583	-1.1007874046244621	-0.26666851539981623	-0.6695585275602185	0.25402756176628377	0.9452396067869323	-0.47295283639874663	-1.8307153588834526	-0.6971120995873744	-0.22931021100630306	-0.6612899785761437	0.5194435465569878	-0.15501027172262444	-1.082091650022545	-0.7722606597598275
lead	-0.5554737574888069	-1.2426286276949399	-0.25795907871625023	-1.4428173962950568	0.5310800734663021	0.8490700153713737	0.18384952518962117	-1.9681788076685993	-1.3053312677884454	0.08736434345488192	0.4274075375480939	1.825541515168989	-0.14826919165293284	-1.8142329926488516	0.17649582825838583
13	-1.6751977867037602	0.18970653508782065	-1.4597853467037274	0.34853186205327336	-1.1922366434207872	0.8320148600474004	-0.6749604367564528	1.7723070671391563	1.198551336563861	-0.5370095829140772	1.509880662382456	0.5995813699924408	-2.442324633323814	1.3868932449904912	2.706894583618264
conversations	-0.5906955478474143	1.0732421146491082	-0.6272798666025632	0.89008962184999	0.2396234131504984	1.466921686117009	-0.7815004984744489	0.9721881770616827	0.7888568383689062	-1.4016960634016375	1.2416916682947783	0.24683484840284112	-2.3988362362932456	0.5177869894859768	2.6758268881085296
holds	-0.4746321137350879	-0.3616899912785177	-0.4122471763706128	1.2434968137872089	0.1058436834242369	0.35593690962712976	1.0084875984487351	-0.5424047645257202	0.0025160857717089757	-0.30540636467895643	0.9697746457690359	0.1925856560699894	-0.35335700949041104	0.04507289657909885	0.6027211293067077
close	-1.7906946888871433	-0.4725540373371767	0.20024057959247576	-0.2875925795786356	0.1881266796618159	-0.8801955919450065	0.42642172672628276	0.03667703111251519	1.699529849786062	-0.14471824907079917	1.4848713372730944	2.421207021943112	0.8394899862141059	-0.21098370746520212	0.0606915874417161
relatively	0.6312794831161581	0.8939231182783411	-1.822735806649902	-0.42712681352510556	0.39044594042741465	-2.377831919600909	-0.4208610242473887	-1.5037958965829232	0.44202399442594836	0.34132130692039514	1.9745743263027469	1.1339859142326216	-0.7850013372700213	1.3414883399554713	-0.9874218304046644
slow	-0.3080392585535634	-1.0264250654449136	-0.9831853308358429	0.16288082381631847	0.20105427396613004	-0.5099058481321312	0.19157853779445722	-0.22303342331371928	-1.5445609359418973	-0.10968339365347754	1.7483852097591732	0.40935532138222985	0.28920882478608917	1.0998779892354709	-1.0472641873204007
come	-1.0692391727467978	-1.4303346566377133	0.5931290354225818	0.08023235811062776	-0.4629539648019739	1.229608378570017	0.8027472686039427	0.3017310514205731	0.8243682004277488	0.7839196777971187	1.4892684351522867	1.8917123062683863	0.7846985600109717	-0.2718309046975433	0.21944506667618013
point	-0.2550681934734358	1.2534187373765295	-0.8648111026016457	0.7621785715561241	1.2680248292777434	-0.41755043245795415	0.8362137308111055	-0.5693574755396797	1.4161781477424444	-0.17388854932791853	0.28410820612066123	0.426063233136852	-1.0803810648572327	1.3093913572606513	1.175277447702985
auto	-1.9138960303855455	-0.9313034739429494	-3.5887653162048734	0.5808530948728905	0.11221761454186996	-3.4722231739798577	-1.0363222354262656	2.2144817932760894	0.0903907981059715	-0.5371472248616829	2.189223166131561	1.0938330922257253	-1.0844987238048263	0.8327516701126845	-0.7159289550316065
focus	-1.160685623839583	0.186900910708637	-2.089105933974178	0.19298942370321814	0.5094120877114408	-2.21034048431525	0.002491168392984966	-0.007712939588629952	0.036127566597406346	-0.3058357454806877	1.0302499246408048	1.5533383668349305	-1.270174978125887	0.7319358239676705	-0.07555012296952887
works	-0.3478765511529094	-0.867867813994058	-1.0079698360525895	-0.24472402624587675	-0.019783269598206588	0.03300281419798046	-0.3822787135663122	-1.0079856604764037	-0.04070451254334328	0.02062928214611659	-0.10025644987924132	0.45231044132761133	-1.5128248325757703	0.5704433862395073	0.09911387204307281
unusual	-0.8606764841276003	1.0342385991603171	-0.2302477482909977	-1.519314476260731	-0.28346684745118333	-0.006258392481956143	1.1427955584706788	-0.9128532779368232	-1.8723170980485073	0.5905559831958231	0.9680213443431693	-1.5217496464568774	-1.2828227784242223	0.45492650941248103	-0.14760744402043108
biopic	0.8908107079927337	0.25746420643462403	-1.458850861306618	-1.2118081327473715	-0.5603399113585718	1.05193914406655	-0.2662135370252019	0.20048169502674473	-2.480770285359803	1.2042582661163048	1.5025265526020104	-0.6140955736726318	0.3027305755321075	-0.3966903447511955	0.3950360954609847
document	0.9021142955566337	-0.2471165454925458	0.12248193968853716	-0.8710531869278654	1.177909538341644	0.4483469005709311	0.26864934443264654	-1.9797810918589125	-0.9682609089670595	0.8396420151294658	0.46372912755390905	1.7786577280781413	-0.505460687642898	0.6370218575685771	0.08369230512429882
male	0.04397001300146064	-1.8841874519955906	0.07095347894378701	-0.8056058425304778	1.967330092643967	1.597943265638093	0.6003796078601074	-1.5832222894099666	-1.216043281702715	0.41463256134444104	-0.8835107173898447	-0.540595380193663	-1.2179013640917913	-0.8712071028167294	1.0396041086597692
era	0.7612562158825517	-0.2672606913697616	-1.1532307659724155	-0.003911663358607431	0.7679629180176071	0.9046358665278802	0.9548858951446315	-1.3845649209948072	-0.3415224870857809	0.842997201263376	-0.8764712849505966	-0.4065827619958976	0.17769663685021397	0.7361146517711469	0.7758167655318174
mr.	-1.5806461201729973	-0.4076971155730364	-1.8005119037742963	-2.449586868388731	0.006704167098161483	-1.5724258091053909	-0.1837362698361355	-0.2140329376236519	0.31440334403683745	-1.4919490002362996	-0.25431864873417864	-0.31394342059798536	-2.1898114680370044	-1.0790939229186245	0.12339508386954523
zhang	-2.7899841483264636	0.2130893960297644	-0.2478716289751164	-3.179722117519426	0.026395114359566485	-1.5730641580911486	0.6069194254869024	-0.6602456047567155	-0.4308108927397901	-1.098815574361728	0.3948386587650723	0.6090286470767389	-3.2875638687562847	-1.1472980638886152	0.7759040452288881
subject	-0.1712399269621181	0.7260200927703632	-1.1571177118051255	0.41298265203629264	1.0421382818718916	-0.046592155539427416	0.9529179863445482	-1.7955486825550633	-0.09250520960429309	-1.2635436884686106	0.6778969773865561	0.23339306901202836	-0.6028979227186013	0.3530016149811951	-1.0350713027038068
degree	1.4277964117203785	0.5882932661745366	-1.0497980828299316	-0.31618146960715265	0.8455971631343616	1.1853316225426198	-0.11430885428105358	-2.4987613458772917	0.5503101370985509	0.5904220304983869	1.0914906781668725	1.232922773534039	-0.19487522574942812	0.12755447930660568	-0.002587405678529109
least	-0.623129158446515	-0.9839049850760548	-1.6059778881716031	-1.681117824837148	1.1843731907840738	-0.7521105760212593	0.49768905136718133	0.6512307507799353	0.13500046584083583	-1.165156629988899	1.4107304819536415	0.3831558099138071	-1.4053014237894317	1.499723482640297	-1.2583847963556363
